%YAML:1.0
---
opencv_ml_svm:
   format: 3
   svmType: C_SVC
   kernel:
      type: RBF
      gamma: 0.5
   C: 1.
   term_criteria: { epsilon:1.1920928955078125e-07, iterations:1000 }
   var_count: 64
   class_count: 31
   class_labels: !!opencv-matrix
      rows: 31
      cols: 1
      dt: i
      data: [ 1001, 1003, 1005, 1007, 1009, 1011, 1013, 1015, 1017, 1019,
          1021, 1023, 1025, 1027, 1029, 1031, 1033, 1035, 1037, 1039,
          1041, 1043, 1045, 1047, 1049, 1051, 1053, 1055, 1057, 1059,
          1061 ]
   sv_total: 2662
   support_vectors:
      - [ 0.0620575957, 0.0919406638, 0.080465056, 0.123146966,
          0.087626487, 0.0843473673, 0.0681301951, 0.214306176,
          0.106368884, 0., 0., 0.00487854937, 0.00783813745, 0.,
          0.0188093092, 0.34815973, 0.188092649, 0.0841361284,
          0.0297415294, 0.00487854937, 0.00783813745, 0., 0.00256924098,
          0.248097748, 0.140458703, 0.0839123875, 0., 0., 0.0030553597,
          0.0578031838, 0.0885361508, 0.32636106, 0.126001075,
          0.0446368977, 0.053257674, 0.0475554839, 0.0575816259,
          0.109721519, 0.104964048, 0.331130564, 0.152132347, 0.,
          0.00456882874, 0.0417639315, 0.00864186231, 0., 0.10838642,
          0.217049778, 0.159889266, 0., 0., 0., 0., 0., 0.0209667142,
          0.38085714, 0.127829134, 0.0818616524, 0.0666775033, 0., 0.,
          0.0888218582, 0.0598410107, 0.255784661 ]
      - [ 0.362389922, 0.110926025, 0.10718064, 0.0989011824,
          0.00706374086, 0.0640107468, 0.0541994534, 0.110803008,
          0.244378448, 0., 0., 0.00593987433, 0.00631800201, 0.,
          0.00265639252, 0.0064203525, 0.330880076, 0.108319432, 0., 0.,
          0.00706374086, 0., 0.0329106748, 0.0386505239, 0.21617648,
          0.144342512, 0.05508532, 0.0315768383, 0.0949257761,
          0.0869590566, 0.105405629, 0.144275546, 0.237507194,
          0.134220555, 0.0435397625, 0.09923397, 0.057745073,
          0.0824259296, 0.0712056831, 0.0649740919, 0.360517293,
          0.108065493, 0., 0., 0., 0., 0.0394221619, 0.0441960506,
          0.267739624, 0.00375670637, 0., 0., 0.00547155039, 0.,
          0.00375670637, 0., 0.40011099, 0.101298615, 0.0677220225,
          0.0320973136, 0., 0., 0., 0.11618311 ]
      - [ 0.277914733, 0.0950672925, 0.0641180575, 0., 0.00868045166,
          0.00622987235, 0.0867915899, 0.0553732552, 0.258148849,
          0.00551779801, 0.0049060937, 0.00714560412, 0.00927979313,
          0.0049060937, 0.0566194877, 0.122378498, 0.276067495,
          0.119821325, 0.0302795377, 0., 0.00656180503, 0., 0.0398687236,
          0.095259726, 0.255896598, 0.0692400113, 0., 0.0696230158,
          0.00463989656, 0.0792368129, 0.0660678595, 0.107742794,
          0.263945729, 0.109122992, 0.0610914305, 0.0709813088,
          0.0640520677, 0.0890996605, 0.0901969597, 0.131530687,
          0.351055562, 0.0526099689, 0., 0.0307716299, 0.00984270778, 0.,
          0.113542221, 0.177908957, 0.319702387, 0.0238927677,
          0.0355539881, 0., 0.0196854156, 0.0495137163, 0.136774972,
          0.182674274, 0.305506974, 0.0736691952, 0.104719855,
          0.095597364, 0.0721735358, 0.05678178, 0.121277496,
          0.117825449 ]
      - [ 0.202998146, 0.0156385079, 0.012770745, 0.0305276066,
          0.0157233141, 0.0569797866, 0.0926529765, 0.167326748,
          0.200134978, 0.00802238565, 0., 0.0434984304, 0.0160382539,
          0.0477073193, 0.166683406, 0.309091121, 0.155618459,
          0.0697619691, 0.0672749877, 0.00536489254, 0.0159639381,
          0.00728501985, 0.015273368, 0.207949102, 0.131109253,
          0.0139409667, 0.0839191452, 0.0596011542, 0.126622692,
          0.0963332355, 0.115196757, 0.25271064, 0.221423671,
          0.0365953147, 0., 0., 0., 0.0519239642, 0.0869241357,
          0.308768511, 0.312987834, 0.0532128364, 0., 0.0506798886, 0.,
          0.0700031668, 0.119013466, 0.232028157, 0.183715016, 0., 0.,
          0., 0.0355280377, 0.0646634549, 0.0632183701, 0.20456627,
          0.17604503, 0.168657139, 0.0788804069, 0.154045731,
          0.0789898336, 0., 0.0937769488, 0.141354084 ]
      - [ 0.389978945, 0.0128286192, 0., 0.0289148074, 0.0106421411,
          0.00601481786, 0.0484946258, 0.129199892, 0.0550240353,
          0.00585845532, 0.00784913823, 0.00505783875, 0.0180471595, 0.,
          0.0132835759, 0.0438953936, 0.320459187, 0.0924152285,
          0.00763775688, 0.00715286424, 0.015877407, 0.00601481786,
          0.00585845532, 0., 0.094391115, 0.147034302, 0.122689031,
          0.059795849, 0.107198268, 0.0957958698, 0.0265270192,
          0.128716066, 0.278018057, 0.0988288745, 0.0840062201, 0.,
          0.0663053542, 0.0910009816, 0.119998269, 0.281644791,
          0.356491894, 0.0169749595, 0., 0.0108569087, 0., 0., 0., 0.,
          0.161197305, 0.0650069043, 0.0334827863, 0.0777920783,
          0.042385105, 0.0388695151, 0.0681398362, 0.083057709,
          0.397105575, 0., 0., 0.108007014, 0.133832484, 0.155516505,
          0.135352314, 0.115591064 ]
      - [ 0.310352147, 0.0778055415, 0.0428092368, 0., 0., 0.,
          0.0846388265, 0.12488015, 0.189482182, 0., 0., 0.0522322878,
          0., 0.0528449304, 0.103738442, 0.128753349, 0.282685637,
          0.0348792151, 0., 0., 0., 0., 0.0864701867, 0., 0.183674261,
          0.086317569, 0.0817157701, 0.115229085, 0.0422371551,
          0.0754742622, 0.0575991906, 0.154685974, 0.2780689,
          0.0960474461, 0.117643863, 0.0518309325, 0., 0.0673766211,
          0.137117058, 0.177527294, 0.386956841, 0.0274048429,
          0.0527673289, 0., 0., 0., 0.120783605, 0.159022123,
          0.146430433, 0.0504876636, 0.0503010377, 0., 0.0707211122, 0.,
          0.0489398353, 0.0592885502, 0.356356651, 0.076433681,
          0.0435343757, 0.0811265782, 0.175222516, 0.0916486681,
          0.140466943, 0.176484182 ]
      - [ 0.371724814, 0.117708214, 0.011099332, 0.0559344515,
          0.0816889033, 0.00633693207, 0.0948387757, 0.112736382,
          0.195436522, 0.0668784901, 0., 0.00808295142, 0.0074225706,
          0.0497553945, 0.0161717795, 0.0645742863, 0.266234875,
          0.0703482106, 0.0187284499, 0., 0.0037112853, 0.00554966601,
          0.0031208063, 0.101937644, 0.0873103216, 0.120146498,
          0.103492007, 0.0998835936, 0.0811007023, 0.105039328,
          0.17586869, 0.138055906, 0.299230814, 0.117761388,
          0.0798216462, 0.0463582203, 0.0306189228, 0., 0.104540572,
          0.190214723, 0.396994025, 0.0354825817, 0., 0., 0., 0., 0.,
          0.0661888942, 0.262678385, 0., 0., 0.0191338509, 0., 0.,
          0.0693727359, 0.151147291, 0.340752333, 0.150263265,
          0.0505227596, 0.0482619032, 0., 0., 0.07623934, 0. ]
      - [ 0.202144548, 0.113941155, 0.0795141682, 0.0758909658,
          0.0507436879, 0.00663727242, 0.0725906342, 0.18935214,
          0.117237367, 0.0660748407, 0.00955642574, 0.00691249641,
          0.0151362093, 0., 0.0105029931, 0.218560323, 0.264113486,
          0.010420125, 0.0205242429, 0.0185105652, 0.0393183976,
          0.00663727242, 0.0469375141, 0.18020305, 0.188929051,
          0.0622732416, 0.0441093892, 0.00691249641, 0.0113659445, 0.,
          0.00989416521, 0.243797213, 0.176149234, 0.0782890096,
          0.0788327679, 0.0833551586, 0.108403534, 0.0773244649,
          0.0891216099, 0.33679688, 0.144752219, 0.113517866,
          0.0422547683, 0., 0., 0., 0., 0.26728189, 0.238115847, 0., 0.,
          0., 0., 0., 0.101047762, 0.334591419, 0.237405211,
          0.0781674907, 0., 0.0694066733, 0., 0., 0.098761104,
          0.251901537 ]
      - [ 0.196865514, 0.10429731, 0.00621333346, 0.0390703082,
          0.0150746657, 0.0567800254, 0.14047052, 0.179845542,
          0.138740867, 0.0538170524, 0.00942743756, 0.00781285297,
          0.0186967421, 0.0257767253, 0.0395233296, 0.328115463,
          0.179590687, 0.0172064621, 0.0112896711, 0.00663453527,
          0.00847710762, 0.0645340234, 0.00494128233, 0.130791262,
          0.206234947, 0.00924429297, 0.0815779194, 0.0112152351,
          0.0122863464, 0.0799817145, 0.112855263, 0.279695719,
          0.224953368, 0., 0.0576274209, 0., 0.0408576578, 0.0711014867,
          0.167428792, 0.265608758, 0.328914404, 0.00924429297, 0., 0.,
          0., 0., 0., 0.259996861, 0.172805101, 0., 0.0374265574,
          0.00663453527, 0., 0., 0.0545006692, 0.229470223, 0.205451995,
          0.153905243, 0.116318673, 0.112508371, 0.00847710762,
          0.143473998, 0.00698802853, 0.157855779 ]
      - [ 0.148169145, 0.0584159009, 0.134760007, 0.0970023647,
          0.00933922827, 0.108926669, 0.0962786004, 0.133259982,
          0.133689404, 0.0463493727, 0., 0.023561107, 0.0104415743,
          0.0413468927, 0.0650232956, 0.312030524, 0.216317445,
          0.0389667451, 0., 0., 0.00738330791, 0., 0.0505991615,
          0.146422178, 0.225742206, 0.0896538794, 0.0626715273,
          0.00527222967, 0.0431542955, 0.0498156995, 0.11334531,
          0.289517701, 0.133323327, 0.0949442014, 0., 0., 0.0850756168,
          0.102080815, 0.0807722807, 0.348059833, 0.152285084,
          0.057906948, 0.0233690552, 0.0407599732, 0.0112367738,
          0.0365002081, 0.101429388, 0.201841742, 0.200171396,
          0.060615249, 0., 0., 0., 0., 0.0128637124, 0.353090167,
          0.198460355, 0.0909517556, 0.0606449395, 0., 0.0818868056, 0.,
          0.0456293188, 0.256333143 ]
      - [ 0.162087366, 0.108698383, 0.0948229358, 0.0817295611,
          0.065157719, 0.0676729307, 0.0924589783, 0.20272921,
          0.0998085067, 0.00498674717, 0.00511984434, 0., 0.00765595259,
          0.00511984434, 0.019253917, 0.315338224, 0.162157208,
          0.0332076885, 0., 0.00886095874, 0.010271539, 0.,
          0.00575819984, 0.224759042, 0.134012654, 0.0951059759,
          0.0853672996, 0., 0.0396500155, 0.0954753533, 0.0993272662,
          0.344801247, 0.0726307482, 0.0724059865, 0.0490673035,
          0.0758622661, 0., 0.0930395424, 0.0897573382, 0.380347878,
          0.0785994604, 0., 0., 0., 0., 0., 0., 0.260113686, 0.151738867,
          0.103236295, 0., 0., 0., 0., 0.0194813311, 0.361097962,
          0.163065076, 0.0773717165, 0.0601896606, 0.0873336047,
          0.0748698562, 0., 0.176111162, 0.164926589 ]
      - [ 0.0620575957, 0.0919406638, 0.080465056, 0.123146966,
          0.087626487, 0.0843473673, 0.0681301951, 0.214306176,
          0.106368884, 0., 0., 0.00487854937, 0.00783813745, 0.,
          0.0188093092, 0.34815973, 0.188092649, 0.0841361284,
          0.0297415294, 0.00487854937, 0.00783813745, 0., 0.00256924098,
          0.248097748, 0.140458703, 0.0839123875, 0., 0., 0.0030553597,
          0.0578031838, 0.0885361508, 0.32636106, 0.126001075,
          0.0446368977, 0.053257674, 0.0475554839, 0.0575816259,
          0.109721519, 0.104964048, 0.331130564, 0.152132347, 0.,
          0.00456882874, 0.0417639315, 0.00864186231, 0., 0.10838642,
          0.217049778, 0.159889266, 0., 0., 0., 0., 0., 0.0209667142,
          0.38085714, 0.127829134, 0.0818616524, 0.0666775033, 0., 0.,
          0.0888218582, 0.0598410107, 0.255784661 ]
      - [ 0.14534831, 0.138538644, 0.0416320935, 0.00951469038,
          0.0168905929, 0.0488215573, 0.0584845133, 0.162414685,
          0.146591604, 0.00820024312, 0., 0.00809128955, 0.00890212413,
          0.00841910858, 0.0176415574, 0.31528765, 0.271493524,
          0.0568780787, 0.0250601433, 0.00809128955, 0.00689555518, 0.,
          0.00669547077, 0.131000414, 0.108082026, 0.123104826,
          0.114563607, 0.120160848, 0.0958897993, 0.10128203,
          0.0850278735, 0.172766253, 0.172594011, 0.132602945, 0., 0.,
          0.0466845185, 0.0597113632, 0., 0.368808001, 0.180714816, 0.,
          0.0814691558, 0., 0., 0., 0.0575428009, 0.20242013,
          0.105826139, 0.105923012, 0., 0., 0.0835674033, 0.,
          0.0193179771, 0.374396324, 0.156861275, 0., 0.109532803,
          0.123582892, 0.0669071525, 0.14947924, 0.105208501,
          0.256219059 ]
      - [ 0.143440217, 0.0997785404, 0.0226012189, 0.0578666143,
          0.0618533716, 0.0715573505, 0.138248846, 0.234285042,
          0.0796090886, 0., 0., 0., 0.00467208866, 0., 0., 0.327105999,
          0.21346131, 0.0639401972, 0., 0., 0.00572211668, 0., 0.,
          0.20865269, 0.172819555, 0.111645348, 0., 0.0337562524,
          0.0648258328, 0.0904637873, 0.0649668351, 0.311819583,
          0.130693391, 0.0262013618, 0., 0.00788800046, 0.00965976715,
          0., 0.10183306, 0.348279417, 0.138786048, 0.00564093096,
          0.00835972559, 0., 0.0125953881, 0., 0.00277804048,
          0.273747951, 0.120106645, 0.0377301127, 0., 0., 0.0332994461,
          0., 0.105235025, 0.363188326, 0.134474352, 0.0665877983, 0.,
          0.117416687, 0., 0.0421179235, 0., 0.276941419 ]
      - [ 0.322768956, 0.145509973, 0.0898652002, 0.0705160648,
          0.0144218979, 0.0681781918, 0.114696681, 0.110006787,
          0.162474051, 0.0108470069, 0.0068196943, 0.0443984419,
          0.0152369775, 0.060701903, 0.010956469, 0.104596876,
          0.285389721, 0.0630003065, 0.0068196943, 0.00573465647,
          0.0155202262, 0., 0.00868023653, 0.0884758309, 0.18779026,
          0.1451381, 0.0878871977, 0.0962856039, 0.119720459,
          0.0889308006, 0.0787155256, 0.188191667, 0.239086628,
          0.0600489229, 0., 0.0458800532, 0., 0., 0.0941580459,
          0.258296728, 0.31034714, 0.0203491598, 0.0511704758,
          0.00811002962, 0.00456060469, 0., 0.0826808959, 0.131618634,
          0.222940505, 0., 0., 0., 0., 0., 0.0468323044, 0.225616723,
          0.326126784, 0.112759687, 0.0683265999, 0.0815684423,
          0.0261836294, 0.0697525218, 0.0960298851, 0.217114598 ]
      - [ 0.322768956, 0.145509973, 0.0898652002, 0.0705160648,
          0.0144218979, 0.0681781918, 0.114696681, 0.110006787,
          0.162474051, 0.0108470069, 0.0068196943, 0.0443984419,
          0.0152369775, 0.060701903, 0.010956469, 0.104596876,
          0.285389721, 0.0630003065, 0.0068196943, 0.00573465647,
          0.0155202262, 0., 0.00868023653, 0.0884758309, 0.18779026,
          0.1451381, 0.0878871977, 0.0962856039, 0.119720459,
          0.0889308006, 0.0787155256, 0.188191667, 0.239086628,
          0.0600489229, 0., 0.0458800532, 0., 0., 0.0941580459,
          0.258296728, 0.31034714, 0.0203491598, 0.0511704758,
          0.00811002962, 0.00456060469, 0., 0.0826808959, 0.131618634,
          0.222940505, 0., 0., 0., 0., 0., 0.0468323044, 0.225616723,
          0.326126784, 0.112759687, 0.0683265999, 0.0815684423,
          0.0261836294, 0.0697525218, 0.0960298851, 0.217114598 ]
      - [ 0.321742833, 0.109522954, 0.0260845907, 0.113149993,
          0.0312874131, 0.0906189308, 0.142163172, 0.0999247432,
          0.186853632, 0.00552329002, 0.0626997873, 0.049574364,
          0.0478490219, 0.0214021672, 0.118055351, 0.115309484,
          0.319862843, 0., 0.00860723015, 0., 0.0108039798, 0.,
          0.126438439, 0.140597567, 0.225275084, 0.112007178,
          0.141158104, 0.0990582258, 0.119688667, 0.0993432701,
          0.126851335, 0.137994289, 0.208589658, 0., 0., 0., 0.,
          0.0185497738, 0.167800277, 0.235214055, 0.239827186,
          0.00318887294, 0., 0.0193223394, 0., 0., 0.0894152373,
          0.125391394, 0.160708904, 0., 0., 0., 0., 0., 0.128569424,
          0.181176588, 0.289660543, 0.103605345, 0.0577073991, 0.,
          0.0271377359, 0.0986639932, 0.169029459, 0.220311403 ]
      - [ 0.292761058, 0.164557636, 0.079093799, 0.074986659,
          0.125505313, 0.0906083807, 0.00642662356, 0.0356646739,
          0.132949501, 0.10125374, 0.0514272824, 0.0634955689,
          0.0100253709, 0., 0.0118281757, 0.16488564, 0.322047472,
          0.0187403988, 0., 0.00829673558, 0.0168490522, 0.0500100553,
          0.0497344844, 0.119985223, 0.193726957, 0.163037688,
          0.0835145637, 0.0829019994, 0.143036053, 0.120477222,
          0.103569552, 0.145991951, 0.183991671, 0.0630019307, 0.,
          0.0414777026, 0.00764258672, 0.0626386255, 0.0118281757,
          0.29736948, 0.261278063, 0.0229450986, 0.00659815129,
          0.00998098869, 0.00624014623, 0.0654176027, 0.0485766791,
          0.125821188, 0.154767901, 0.0657176971, 0., 0., 0.,
          0.0535335243, 0.143416792, 0.111417368, 0.35793519,
          0.0906539559, 0.0643819645, 0., 0.00554836169, 0.100114301,
          0.157119721, 0.23745364 ]
      - [ 0.209405169, 0.149990141, 0.0777024999, 0.100760162,
          0.0680136532, 0., 0.114230655, 0.157789379, 0.101517551,
          0.0111220293, 0.0788679644, 0.00636108033, 0.0814902186,
          0.0683630556, 0.107990742, 0.227997199, 0.197341323,
          0.113691844, 0., 0.00425391085, 0.00799217168, 0.0381717831,
          0.00402310025, 0.138708368, 0.209760845, 0.121141024,
          0.00505878124, 0.0627705008, 0.0271916222, 0.0669832975,
          0.117965288, 0.2945728, 0.217440709, 0., 0., 0., 0.0695489794,
          0.0843255222, 0.0691708177, 0.366639376, 0.163909793, 0., 0.,
          0.034606833, 0., 0., 0., 0.202100575, 0.179062173,
          0.0489958338, 0., 0., 0.03602615, 0., 0.00492727151,
          0.269961178, 0.295779079, 0.0728103444, 0.0858783647,
          0.0693295151, 0., 0., 0.0489700623, 0.242163599 ]
      - [ 0.251745492, 0.111980744, 0.106048264, 0.103187583,
          0.00906408392, 0.0341139883, 0.113180324, 0.186538205,
          0.136600971, 0.00721423002, 0.00728531508, 0., 0.0585678481,
          0.0105881356, 0.014283983, 0.260591, 0.27400139, 0.0445883796,
          0.0402442366, 0.00482444651, 0.0136963688, 0.0087082563,
          0.00800895132, 0.138099134, 0.229546174, 0.0956086144,
          0.0851829946, 0., 0.0663399249, 0.042743925, 0.130851954,
          0.284451813, 0.182726398, 0., 0., 0.0430462733, 0.0655853152,
          0.0594302826, 0.0894168988, 0.292304099, 0.252283186,
          0.011251553, 0.00655114511, 0., 0., 0., 0., 0.189348489,
          0.234403908, 0., 0., 0.0369702093, 0., 0., 0.061172355,
          0.218727231, 0.328084111, 0.0697729439, 0.0837335736,
          0.0662037805, 0., 0., 0.0425803177, 0.14720352 ]
      - [ 0.322768956, 0.145509973, 0.0898652002, 0.0705160648,
          0.0144218979, 0.0681781918, 0.114696681, 0.110006787,
          0.162474051, 0.0108470069, 0.0068196943, 0.0443984419,
          0.0152369775, 0.060701903, 0.010956469, 0.104596876,
          0.285389721, 0.0630003065, 0.0068196943, 0.00573465647,
          0.0155202262, 0., 0.00868023653, 0.0884758309, 0.18779026,
          0.1451381, 0.0878871977, 0.0962856039, 0.119720459,
          0.0889308006, 0.0787155256, 0.188191667, 0.239086628,
          0.0600489229, 0., 0.0458800532, 0., 0., 0.0941580459,
          0.258296728, 0.31034714, 0.0203491598, 0.0511704758,
          0.00811002962, 0.00456060469, 0., 0.0826808959, 0.131618634,
          0.222940505, 0., 0., 0., 0., 0., 0.0468323044, 0.225616723,
          0.326126784, 0.112759687, 0.0683265999, 0.0815684423,
          0.0261836294, 0.0697525218, 0.0960298851, 0.217114598 ]
      - [ 0.292761058, 0.164557636, 0.079093799, 0.074986659,
          0.125505313, 0.0906083807, 0.00642662356, 0.0356646739,
          0.132949501, 0.10125374, 0.0514272824, 0.0634955689,
          0.0100253709, 0., 0.0118281757, 0.16488564, 0.322047472,
          0.0187403988, 0., 0.00829673558, 0.0168490522, 0.0500100553,
          0.0497344844, 0.119985223, 0.193726957, 0.163037688,
          0.0835145637, 0.0829019994, 0.143036053, 0.120477222,
          0.103569552, 0.145991951, 0.183991671, 0.0630019307, 0.,
          0.0414777026, 0.00764258672, 0.0626386255, 0.0118281757,
          0.29736948, 0.261278063, 0.0229450986, 0.00659815129,
          0.00998098869, 0.00624014623, 0.0654176027, 0.0485766791,
          0.125821188, 0.154767901, 0.0657176971, 0., 0., 0.,
          0.0535335243, 0.143416792, 0.111417368, 0.35793519,
          0.0906539559, 0.0643819645, 0., 0.00554836169, 0.100114301,
          0.157119721, 0.23745364 ]
      - [ 0.395709068, 0.0553959496, 0., 0., 0.0085955644, 0.0574633926,
          0.0748180449, 0.157654867, 0.270349443, 0., 0.0127858743,
          0.00457507232, 0.00891227555, 0., 0.0577251762, 0.10398142,
          0.34082374, 0.0260586888, 0., 0., 0.0150529854, 0.,
          0.00529927062, 0.129769102, 0.30333209, 0.0421698019,
          0.108816907, 0.0625476986, 0.135840133, 0.0880245343,
          0.111979075, 0.164537132, 0.20806317, 0.0652159676,
          0.0467567369, 0., 0.00903199334, 0.059336029, 0.127130449,
          0.0956917629, 0.313750535, 0.0686564595, 0.00544070872,
          0.0406706482, 0., 0., 0.103918523, 0.0442678481, 0.258267313,
          0., 0., 0., 0.00584545918, 0., 0.0691723749, 0.0721136108,
          0.344967216, 0.0134230601, 0.00621251855, 0., 0., 0.0395009965,
          0., 0.126416638 ]
      - [ 0.20920825, 0.0974611565, 0., 0., 0.00487653632, 0.,
          0.0661884248, 0.257606059, 0.16336894, 0.0954628363, 0.,
          0.0401874818, 0.00949431583, 0.0466192812, 0.0525136366,
          0.319134563, 0.21654442, 0.0310948081, 0., 0.00613191957,
          0.012692824, 0., 0.0076716356, 0.226847857, 0.194201916,
          0.127996996, 0.108129464, 0.0868086517, 0.0615300722,
          0.107070707, 0.101608776, 0.286110103, 0.214887843,
          0.0076716356, 0., 0., 0.0115205403, 0., 0., 0.290478885,
          0.217618749, 0.0585758872, 0.00588777475, 0., 0., 0., 0.,
          0.188950241, 0.1586169, 0.00820132345, 0., 0.0299694929,
          0.0289627034, 0.0269390047, 0.0185303483, 0.306705892,
          0.171971768, 0.0855092034, 0.0285600908, 0.0106953997,
          0.0428632237, 0.00588777475, 0., 0.268859833 ]
      - [ 0.371813983, 0.106450073, 0., 0.0394241475, 0.0107422732,
          0.0153828971, 0.0471062325, 0.128815606, 0.184374526, 0.,
          0.0428868718, 0., 0., 0., 0.0820163488, 0.0815056711,
          0.231218189, 0.137347132, 0.00605967315, 0., 0.010376839,
          0.0295434576, 0.00422038417, 0.0610082299, 0.21695067,
          0.119126931, 0.0957551822, 0.0828862265, 0.0931889042,
          0.0955458954, 0.167961359, 0.122318611, 0.259281248,
          0.0594912544, 0.0458913334, 0., 0., 0., 0., 0.140629143,
          0.412362307, 0.0122183776, 0., 0., 0., 0., 0.0525248945,
          0.0948036313, 0.195850506, 0.00298426207, 0., 0., 0.0115441158,
          0.0326094925, 0.0682907924, 0.168759868, 0.319537997,
          0.139419004, 0.0609359033, 0.107189849, 0.0452452973,
          0.112233832, 0.176538453, 0.187844321 ]
      - [ 0.270017177, 0.19276683, 0.062841028, 0.0670673177,
          0.00944203138, 0.0217290167, 0.0954805389, 0., 0.203789562,
          0.12823388, 0.0817432031, 0., 0., 0., 0.00857593212,
          0.00783427805, 0.299173504, 0.20858492, 0.0631135032,
          0.018521307, 0.00545135979, 0., 0., 0.0646810159, 0.252908558,
          0.190145269, 0.09532886, 0.0790392831, 0.0641686022,
          0.0398198403, 0.120369211, 0.118593931, 0.170457482,
          0.154757798, 0.127560481, 0.0477609187, 0.0917780846,
          0.0253973771, 0.0932789519, 0.135204047, 0.241111785,
          0.134846658, 0.0618192852, 0., 0.0638747066, 0.0575150512,
          0.0546743944, 0.0257342774, 0.159921691, 0.281412274,
          0.146126106, 0., 0.011889182, 0., 0.00458402885, 0.0615166165,
          0.37550506, 0.175089434, 0.065498285, 0., 0., 0.0610785484, 0.,
          0.0849613696 ]
      - [ 0.210430384, 0.13754493, 0.0924476087, 0., 0.0742602646,
          0.0875374004, 0.103426099, 0.193562284, 0.121555947,
          0.00799007155, 0.0611910112, 0.00848532747, 0.0125933886,
          0.00606229855, 0.102628879, 0.238948628, 0.236414626,
          0.0852253884, 0.00805844646, 0.00667590462, 0.0113182198, 0.,
          0.0112199318, 0.174279302, 0.160511896, 0.0973525494,
          0.101147503, 0.0848192945, 0.00793903321, 0.0934577584,
          0.0779452249, 0.258775324, 0.159484461, 0.158156261, 0.,
          0.069216758, 0.0790783539, 0.0444272533, 0.110365376,
          0.311204523, 0.206027195, 0.0578693263, 0.0555200987, 0., 0.,
          0., 0.12144541, 0.189899117, 0.164429605, 0.0366645716,
          0.0217641294, 0., 0., 0., 0.0579763092, 0.318287045,
          0.237927482, 0.0743898302, 0.0659904927, 0., 0.0933445767, 0.,
          0.0754191205, 0.255791217 ]
      - [ 0.496603668, 0.136583686, 0.0529409535, 0., 0.0465993285, 0.,
          0.141985103, 0.166519731, 0.437114954, 0.20072192, 0.,
          0.0447716936, 0.0132983755, 0., 0., 0.109668814, 0.408229083,
          0.105152965, 0.0593085662, 0., 0.0147019075, 0., 0.0124317678,
          0.00557394093, 0.422509879, 0.169644415, 0.0564529859,
          0.0713682622, 0.0716237426, 0.0592907444, 0., 0.150023893,
          0.00991202425, 0.00997574721, 0., 0., 0.0148099558, 0.,
          0.008334985, 0.0392559096, 0.0651906729, 0.0308025256,
          0.00662857015, 0.010594083, 0.0136983385, 0.0120484,
          0.00745503791, 0.0132050076, 0., 0., 0., 0., 0., 0., 0., 0.,
          0., 0., 0., 0., 0., 0., 0., 0. ]
      - [ 0.3536053, 0.111981988, 0.00901243184, 0.0403012857,
          0.0676448569, 0., 0.0837777257, 0.109167106, 0.181688756,
          0.0623291135, 0.00765319588, 0.0479121394, 0.0145971756, 0.,
          0.15261589, 0.191519767, 0.311122119, 0.0274910703,
          0.00688195322, 0.00643554516, 0.0125809265, 0., 0.0936755911,
          0.0902166441, 0.172563165, 0.101196878, 0.0723881349,
          0.0816928297, 0.0748679265, 0.0400940925, 0.107592456,
          0.242859438, 0.115556106, 0., 0., 0., 0.00647534151, 0.,
          0.00338921789, 0.223703444, 0.382367849, 0.0908174142,
          0.0248132348, 0.0600268953, 0.0511580259, 0.113436542,
          0.112149656, 0.182862297, 0.128202036, 0.0910712928,
          0.0920779109, 0.0678322911, 0.0515899919, 0.0545128658,
          0.102663204, 0.181443974, 0.292987525, 0.12932466,
          0.0339462757, 0.104947932, 0., 0.042293869, 0.00479307771,
          0.0792681128 ]
      - [ 0.206752956, 0.143607333, 0.0800537094, 0.0452283286,
          0.0735340863, 0.0668951645, 0.136603907, 0.178241894,
          0.117506392, 0.0728320032, 0., 0., 0.012749509, 0.0445828214,
          0.080001004, 0.243318602, 0.263218671, 0.0228512771, 0., 0.,
          0.018403979, 0.00546674104, 0.00532462634, 0.183050796,
          0.223472074, 0.0429022536, 0.0215259399, 0., 0.0632479787,
          0.0194700696, 0.084220916, 0.278499424, 0.196291775,
          0.122135736, 0., 0.0947116688, 0.0588966459, 0.102324001,
          0.0557351001, 0.315079808, 0.197638929, 0.0818123817, 0., 0.,
          0., 0., 0.0486938357, 0.194820598, 0.198839888, 0.0491837114,
          0., 0.0345064364, 0., 0., 0.0486961566, 0.344745964,
          0.202195704, 0., 0.0770488456, 0.0487665795, 0., 0.0729630888,
          0., 0.228688568 ]
      - [ 0.338808477, 0.0703752488, 0.0765106082, 0., 0.0982355773,
          0.0733474419, 0.00685133459, 0., 0.294078201, 0.0075318641,
          0.00539550185, 0., 0.0114100976, 0., 0.0568605922, 0.139303774,
          0.183926523, 0.0565019324, 0.0634058267, 0.00453705806,
          0.0130095128, 0., 0., 0.0732165053, 0.234326586, 0.0914340094,
          0.0739753693, 0.0430676788, 0.0813430548, 0.103697062,
          0.140806437, 0.204540893, 0.307329595, 0.0683168918,
          0.0773193464, 0.105640955, 0.0119670108, 0.0732075945,
          0.0715022311, 0.0737547576, 0.391825527, 0.0102451351, 0., 0.,
          0., 0., 0.0446117856, 0.103225738, 0.210060999, 0., 0.,
          0.10835705, 0.151661709, 0.0468799584, 0.03525161,
          0.0624657311, 0.298606664, 0.0993079543, 0.0928824618,
          0.115068786, 0.0930589065, 0.121950328, 0.106071495,
          0.115270413 ]
      - [ 0.335112512, 0.00696209911, 0., 0.00601065857, 0.012262742,
          0.0123805571, 0., 0.146355093, 0.242659122, 0.0921002477, 0.,
          0., 0., 0., 0.0713335872, 0.0917054638, 0.209726632,
          0.0177722685, 0., 0.00601065857, 0.0135201672, 0.0574484952,
          0., 0.0684082285, 0.046097625, 0.00803913921, 0.0573200174,
          0.0104107661, 0.0730258673, 0.104713492, 0.126724079,
          0.210720301, 0.329328388, 0.172786862, 0., 0.0692869276, 0.,
          0.0592571758, 0.0336320102, 0.179488599, 0.397491902,
          0.0056845299, 0., 0.00601065857, 0., 0.0581501126, 0.,
          0.133667976, 0.222864375, 0.11036782, 0.0702215806, 0., 0., 0.,
          0.00898803119, 0.0844840705, 0.35837996, 0.151324436,
          0.184551373, 0.079150036, 0.0816952586, 0.0999738052,
          0.0140199028, 0.0914952755 ]
      - [ 0.095390074, 0.0946448222, 0.00676897494, 0.0718138888,
          0.0723224506, 0.0892413408, 0.06509009, 0.229753733,
          0.0421794653, 0.00793101173, 0.00695631234, 0., 0.0124120638,
          0.00876390468, 0.0175100304, 0.287466764, 0.211622223,
          0.0276097432, 0.0239869766, 0.00896503683, 0.0173191,
          0.00753866695, 0.0101146121, 0.1778, 0.1180043, 0.0702883601,
          0., 0.00851967651, 0.0531996414, 0.0206369217, 0.0813775882,
          0.247603193, 0.18318744, 0.0747264251, 0.116046406,
          0.103385471, 0.0653536394, 0.112352051, 0.0800274909,
          0.363630116, 0.138609648, 0.0406583734, 0.044628907, 0.,
          0.00873197895, 0.0457063429, 0.117039166, 0.264165133,
          0.182032719, 0., 0.0473849103, 0.044599358, 0.0531151928,
          0.0435588844, 0.101688966, 0.354841739, 0.165005565,
          0.110676989, 0.0889584497, 0.0431010835, 0., 0.122923344,
          0.139513627, 0.252128005 ]
      - [ 0.332266867, 0.0836049318, 0.108228721, 0.0687605888,
          0.00698054768, 0.0683889613, 0.0839047208, 0.0944768339,
          0.244925663, 0., 0., 0., 0.00987198576, 0.00592775643,
          0.119144589, 0.124202438, 0.33308202, 0.130900934,
          0.0181892477, 0.0303360615, 0.0117319338, 0.00533039309,
          0.00454681879, 0.106625952, 0.223555669, 0.152068242, 0., 0.,
          0.104483634, 0.0550448745, 0.0647809654, 0.141265154,
          0.262535483, 0., 0.0331483744, 0., 0., 0.0881304368,
          0.104968056, 0.157735437, 0.317295641, 0.140250981, 0., 0.,
          0.0296200681, 0., 0., 0.0925032943, 0.300024241, 0., 0., 0.,
          0., 0., 0.119918801, 0.135316223, 0.356616497, 0.0770142376,
          0.0556263328, 0., 0., 0., 0.0356257632, 0. ]
      - [ 0.328733712, 0.153232709, 0.103613816, 0.0726932064,
          0.0627750158, 0.0490985997, 0.114992611, 0.213154584,
          0.137015104, 0.00424322672, 0., 0.00851941202, 0.0104522845,
          0.00912295748, 0.0073494846, 0., 0.300637454, 0.047818739,
          0.00533557544, 0.00724521, 0.0100921514, 0.00754564302,
          0.0489048213, 0.0775474533, 0.290401995, 0.129876032,
          0.0768819973, 0.080527842, 0.144536957, 0.0602106266,
          0.12275473, 0.226123035, 0.270148873, 0.105488598, 0.,
          0.0256367549, 0.0585214272, 0.0467133075, 0.10365244,
          0.216350436, 0.296441764, 0.00908203144, 0., 0., 0., 0., 0.,
          0.0723372921, 0.216540426, 0., 0., 0., 0.0683060959, 0.,
          0.0500159264, 0.109211758, 0.323628247, 0.0827877745,
          0.0808400139, 0.037431974, 0.0276624542, 0.072946772,
          0.0952127874, 0.14459537 ]
      - [ 0.342424721, 0.235327974, 0.00634015957, 0., 0.0124202445, 0.,
          0.00885056145, 0., 0.173395038, 0.152446374, 0.00805088319,
          0.00533141755, 0.0156252068, 0.0296717137, 0.0130144721,
          0.0718354955, 0.339699358, 0.165287003, 0.0567814596, 0.,
          0.0099881487, 0.00723956386, 0.00723956386, 0., 0.281196237,
          0.21683386, 0.0675054491, 0., 0.0474776328, 0., 0.048377499,
          0.137548611, 0.15578796, 0.0798990503, 0.0647198707,
          0.0354782417, 0.0373357795, 0.0697240829, 0.086062558,
          0.121543489, 0.282419503, 0.23255232, 0.0575131662,
          0.00797232892, 0., 0.00723956386, 0., 0., 0.134132713,
          0.272864997, 0.0888995901, 0.032856863, 0.0548661016, 0.,
          0.00504214317, 0.158880055, 0.27189675, 0.217294872,
          0.00827369839, 0.00533141755, 0., 0., 0., 0.119101301 ]
      - [ 0.297886163, 0.130984247, 0.0767110512, 0.060496185,
          0.0421041101, 0.0467585437, 0.00652392348, 0.166647553,
          0.226344109, 0.104150489, 0., 0.0605611876, 0.0462504514,
          0.0459219441, 0.0812927336, 0.237368077, 0.252837151,
          0.129040703, 0., 0.00689820945, 0.010971888, 0.0301024951,
          0.0706179291, 0.167730406, 0.279658794, 0.12235003,
          0.0453533791, 0., 0.0535332561, 0., 0.0493455008, 0.282428682,
          0.0909514576, 0.0695843101, 0.0762771517, 0.0664946884,
          0.139808893, 0.1092958, 0.127441883, 0.230719477, 0.230661497,
          0.084795095, 0., 0., 0., 0.036887981, 0.0611021556,
          0.181921512, 0.0499793291, 0.0878301114, 0.0289463829, 0.,
          0.0512106754, 0., 0.0971470028, 0.203111589, 0.212684423,
          0.0859207883, 0.0790525302, 0.0757675692, 0.0943113267,
          0.0790381357, 0.108620651, 0.214365944 ]
      - [ 0.356900543, 0.0627885684, 0.11467091, 0., 0.00492846267,
          0.0678477362, 0.0614447445, 0., 0.277423739, 0.00414432678, 0.,
          0., 0.00696989894, 0., 0.0507431142, 0.143024385, 0.327143639,
          0.145486549, 0., 0.0293956418, 0.00922030956, 0., 0., 0.,
          0.276216507, 0.103121325, 0.0779470652, 0., 0.0734300688,
          0.074176088, 0.0977236032, 0.120811366, 0.228232607,
          0.0718417838, 0.0576307252, 0.0713360533, 0.0583175831,
          0.0300542451, 0.158639684, 0.144407123, 0.301585257,
          0.100312866, 0.0234178994, 0., 0.0306063108, 0.0347585306, 0.,
          0.0737039596, 0.229585275, 0.0847871974, 0.051912982,
          0.00438209204, 0.00779258413, 0., 0., 0.129946291, 0.365224957,
          0.0673570409, 0.0477243029, 0.0923968181, 0.0361463577,
          0.0398002081, 0.117812417, 0.140303731 ]
      - [ 0.309058547, 0.168932587, 0.0871444866, 0.056756407,
          0.0654280782, 0.0624348186, 0.11041607, 0.0877649039,
          0.123074092, 0.180944741, 0.0547205582, 0.0196789894,
          0.00806837436, 0., 0.0558219887, 0.15550904, 0.308017343,
          0.11411418, 0., 0.00875896774, 0.0467976704, 0.0403474756, 0.,
          0.12661013, 0.111654237, 0.112022668, 0., 0.0618197396,
          0.0916047394, 0.137594983, 0.117181726, 0.126283869,
          0.294955194, 0.105482399, 0., 0.0165739078, 0., 0.0520153865,
          0., 0.137326851, 0.408031762, 0.0181801487, 0., 0.,
          0.00329390005, 0., 0., 0.0763773918, 0.249461621, 0.0304681174,
          0.0375709534, 0., 0.0065878001, 0.037836913, 0.00732827792,
          0.106990859, 0.383944452, 0.0978804603, 0.0917905048,
          0.0112694558, 0.0432050377, 0., 0.0845797509, 0.00414186018 ]
      - [ 0.337358594, 0.159622952, 0.00867524091, 0.00980415288,
          0.0901666731, 0.0351862945, 0.0162163489, 0.00893448852,
          0.0474129133, 0.0136725903, 0., 0.0113583077, 0.0172799584,
          0.00613432191, 0.0119989058, 0.159042239, 0.32852149,
          0.0734509975, 0.014134191, 0.00893448852, 0.0171545632,
          0.0106369555, 0.00912673771, 0.00655016722, 0.110659055,
          0.177195966, 0.109977424, 0.115443051, 0.0139604593,
          0.0912843868, 0.0746277198, 0.154704168, 0.156912789,
          0.124377511, 0.0645531714, 0.102551222, 0.179600209,
          0.0778765529, 0.0692332387, 0.300814867, 0.329160243, 0., 0.,
          0., 0., 0.00613432191, 0.0407163501, 0.121703252, 0.127274886,
          0.00783767458, 0., 0.00515832938, 0.00580148352, 0.00800508726,
          0.00689916546, 0.228454754, 0.341367334, 0.0098553542,
          0.0603456311, 0.11558906, 0.132672936, 0.117697634,
          0.160335124, 0.169138059 ]
      - [ 0.123809166, 0.0677770376, 0.0855139196, 0.0944589302,
          0.00564276846, 0.0700278655, 0.0705587715, 0.225747213,
          0.143451452, 0., 0., 0., 0.00921460241, 0.00556270871,
          0.103991561, 0.358466119, 0.190524593, 0.0372155197,
          0.00675654272, 0., 0.00651570782, 0.0246028788, 0.038958028,
          0.24618198, 0.0892133489, 0.0677330345, 0., 0.0681208372, 0.,
          0.0698894411, 0.0960921571, 0.348090827, 0.107014544,
          0.0405428484, 0., 0., 0.112209626, 0.0292730872, 0.0679660141,
          0.349352002, 0.185369134, 0., 0., 0., 0., 0., 0.0905238762,
          0.24002558, 0.132384449, 0., 0., 0., 0.00861947145, 0.,
          0.0096805552, 0.362357944, 0.149786294, 0.0625566095,
          0.0712198615, 0., 0.0797279999, 0., 0.0144590428, 0.222762614 ]
      - [ 0.364149153, 0.070584625, 0.0761166736, 0.0341534652,
          0.00853501074, 0.0394437648, 0.0052103987, 0.10895443,
          0.294293463, 0.0322352014, 0.0052103987, 0., 0.00603516446, 0.,
          0.0572130866, 0.239011154, 0.242366537, 0.0166411344,
          0.00779136363, 0.0799568295, 0.0590293407, 0., 0.0765119866,
          0.0805485174, 0.204116762, 0.159746364, 0.083181195,
          0.0636360049, 0.100581467, 0.109828606, 0.113552123,
          0.133445293, 0.201274723, 0.131983727, 0., 0., 0.0454131737,
          0.0526082367, 0.0622877218, 0.181693673, 0.343629301,
          0.129294857, 0.0446745306, 0., 0., 0.0321246162, 0.0901889503,
          0.103029706, 0.2246878, 0.128749356, 0., 0., 0., 0.,
          0.00655172952, 0., 0.315528005, 0.0666551366, 0.105038844,
          0.0961194038, 0.00853501074, 0.0768528357, 0.0842253044,
          0.144240826 ]
      - [ 0.234218448, 0.142773494, 0., 0.0285732709, 0.012747339,
          0.00582413003, 0.0231426246, 0., 0.00999169331, 0.00655029807,
          0.00582413003, 0.00489749014, 0.0116844922, 0., 0.00802244432,
          0.273702592, 0.274628878, 0.157569274, 0.0229665134,
          0.00791585259, 0.0129941776, 0.00823656376, 0.00567272445,
          0.0588418879, 0.129702598, 0.131421357, 0.122999884, 0.,
          0.0856847018, 0.0867827013, 0.0720201731, 0.182118684,
          0.151323944, 0.145271778, 0.103259206, 0.104661889,
          0.179434031, 0.138507649, 0.146410331, 0.32551235, 0.162589595,
          0.0663962662, 0.0104589816, 0., 0., 0., 0.013214251,
          0.179247424, 0.114777863, 0.115344629, 0.059158545,
          0.0695572346, 0.0484902486, 0., 0.101960123, 0.242943913,
          0.140338644, 0.177716121, 0.117163703, 0.184372261,
          0.117972963, 0.199548244, 0.134942621, 0.235989049 ]
      - [ 0.301775634, 0.10193409, 0.0770091861, 0.07828293, 0.11786107,
          0.0908039138, 0.0602547824, 0.0824028254, 0.248890758, 0.,
          0.0412047356, 0., 0.00569580682, 0.045264639, 0.122673072,
          0.171740398, 0.364095926, 0.108974323, 0., 0.0324323848,
          0.0147065101, 0.0316333212, 0.0908510759, 0.125524297,
          0.20985207, 0.126510724, 0.0118567673, 0., 0.0103990734, 0.,
          0.0444423594, 0.13981685, 0.21376431, 0.0919475034, 0.,
          0.0451572016, 0.061667636, 0.053268332, 0.0803954005,
          0.0861673728, 0.360839754, 0.0516721569, 0., 0., 0., 0.,
          0.0656893104, 0.141908184, 0.286541402, 0.0318014547, 0., 0.,
          0.0342162028, 0., 0.103507325, 0.195299923, 0.348311454,
          0.00391067844, 0., 0., 0.0103990734, 0., 0.00276526739,
          0.0497805364 ]
      - [ 0.275424927, 0.121252328, 0.0840448141, 0.0668936223,
          0.0506385304, 0.0475226231, 0.0764811262, 0.142735839,
          0.194106892, 0.00606151391, 0.00692139007, 0.00647242367,
          0.0125264823, 0.022654783, 0.120648526, 0.24443303,
          0.255207062, 0.0783281252, 0.0128185414, 0.0082384916,
          0.0144524649, 0., 0.0515916757, 0.123651311, 0.199954897,
          0.0868008211, 0.06887234, 0.00509710517, 0.0738458708,
          0.0812499076, 0.134975821, 0.247914582, 0.199541792, 0., 0.,
          0.0899278969, 0.0717114657, 0.0360347666, 0.0720576122,
          0.274081528, 0.286987901, 0.0791355744, 0.0585695133,
          0.0415626541, 0.0396930724, 0.0428665169, 0.0888447389,
          0.139776602, 0.199940324, 0., 0.0490535125, 0., 0., 0.,
          0.0935556963, 0.17487143, 0.354578048, 0.0403661914,
          0.0784829035, 0.0713811964, 0.038628336, 0., 0.118046068,
          0.159254581 ]
      - [ 0.271040648, 0.106108829, 0.0859540924, 0.0537923798,
          0.0117868613, 0.0740965679, 0.116451345, 0.110592403,
          0.156797454, 0.0710915476, 0.0063469219, 0., 0.0128476107, 0.,
          0.0401501246, 0.26963526, 0.234596491, 0.0732151642,
          0.0365860276, 0.0109701874, 0.013137999, 0.0115335518,
          0.0107074091, 0.157463863, 0.173565954, 0.114843331,
          0.0063469219, 0.104452193, 0.0147744846, 0.100998528,
          0.0920960978, 0.222013295, 0.196659803, 0.061129149,
          0.0660026819, 0.0376891084, 0.00533710374, 0., 0.218069091,
          0.229387552, 0.313222915, 0.0383720659, 0.0509884879,
          0.0434916094, 0., 0., 0., 0.214533105, 0.168848127, 0., 0., 0.,
          0., 0., 0.00618192554, 0.151919946, 0.3232297, 0.107855961,
          0.0998433083, 0.0621882305, 0.126931474, 0.0604525246,
          0.105727062, 0.221099108 ]
      - [ 0.326759756, 0.098658219, 0.0376508646, 0.0795914754,
          0.0639372915, 0.0340513252, 0.0710082203, 0.183097035,
          0.159307629, 0.00281640794, 0.0385566838, 0., 0.0111083463,
          0.0123541011, 0.114979535, 0.18262513, 0.367157012,
          0.0393620543, 0.0126830703, 0., 0.012604326, 0., 0.00487816148,
          0.124417603, 0.260788739, 0., 0.0361192115, 0., 0.0103672035,
          0.0360111669, 0.1116772, 0.184045717, 0.243584469,
          0.0454509556, 0., 0., 0.0088613946, 0.0403983817, 0.173281938,
          0.219760075, 0.317806482, 0.056703873, 0., 0., 0.00669858465,
          0., 0.00398300216, 0.148888797, 0.226479501, 0.0269668363,
          0.0425410159, 0., 0.0253735688, 0.0328819081, 0.0494072102,
          0.213291496, 0.328932047, 0., 0., 0.0293644834, 0.0566533357,
          0., 0.0509861298, 0.0522703677 ]
      - [ 0.117429234, 0.0731655806, 0.0680485591, 0.143784627,
          0.117427744, 0.076060228, 0.0808592364, 0.186714545,
          0.0873468146, 0., 0., 0., 0.00919621624, 0., 0.00900250301,
          0.360699326, 0.178651854, 0.0413763374, 0., 0.00757017266,
          0.00695168599, 0., 0., 0.191032916, 0.117603093, 0.107409105,
          0., 0.079017669, 0.00602033641, 0.0742790028, 0.073390469,
          0.348755509, 0.126162171, 0.0858862028, 0.0895978287,
          0.0710910112, 0.10440965, 0., 0.0647846162, 0.328630656,
          0.199148685, 0.0658293366, 0., 0.0438564233, 0.0134618813,
          0.0341022648, 0.071943529, 0.163462698, 0.137673065,
          0.00519759767, 0., 0.0255267825, 0.0196623374, 0.00829910021,
          0., 0.38011983, 0.176789284, 0.0556732193, 0.0662166029,
          0.0768796653, 0.0770670548, 0.0766840056, 0.127755195,
          0.215107784 ]
      - [ 0.11255575, 0.0927956328, 0.0965318084, 0.06858477,
          0.115296952, 0.0733818263, 0.0841109008, 0.226573989,
          0.0692410171, 0.0536687337, 0., 0.0235806536, 0.00759052485,
          0.00644573756, 0., 0.265267313, 0.183019027, 0.0363531969, 0.,
          0.00542019773, 0.00801951718, 0., 0.008563485, 0.282843173,
          0.118292041, 0.0643555224, 0., 0., 0.0142831989, 0.0293449163,
          0.115904443, 0.262581855, 0.186250925, 0.130602926,
          0.0903503299, 0.044002369, 0.119557284, 0.0615134649,
          0.0957886949, 0.337286115, 0.120088868, 0., 0., 0., 0., 0.,
          0.0988652036, 0.242195502, 0.177141666, 0., 0., 0.,
          0.0528073646, 0., 0., 0.330027312, 0.170863256, 0.0581374913,
          0.0679093748, 0., 0.0800983459, 0.0482262224, 0.102360047,
          0.327320099 ]
      - [ 0.255919486, 0.108006962, 0.0684302896, 0.0374379084,
          0.0750592947, 0., 0.0615574867, 0.205340117, 0.190071568,
          0.00850133412, 0.00649637496, 0., 0.012963172, 0.,
          0.00918726157, 0.244621888, 0.250456661, 0.149256185,
          0.0856774598, 0.0503865816, 0.00744413212, 0.00568438927,
          0.00484877685, 0.180328876, 0.157399535, 0.140663847,
          0.13667658, 0.0149850212, 0.00815463811, 0.118584022,
          0.125457048, 0.133225217, 0.258171678, 0.00559888547,
          0.0485966615, 0.00531566283, 0.0931016281, 0.0391942784,
          0.127750918, 0.254449219, 0.25267908, 0.128017768,
          0.00497819111, 0., 0.0386699475, 0., 0.00484877685,
          0.180647954, 0.209090114, 0.0951203927, 0.00804628991,
          0.0505585559, 0.0105275931, 0., 0.0826328695, 0.2375741,
          0.231123239, 0.149453625, 0.0922599658, 0.0544899516,
          0.0128936153, 0.00649637496, 0.0981471688, 0.199086219 ]
      - [ 0.162087366, 0.108698383, 0.0948229358, 0.0817295611,
          0.065157719, 0.0676729307, 0.0924589783, 0.20272921,
          0.0998085067, 0.00498674717, 0.00511984434, 0., 0.00765595259,
          0.00511984434, 0.019253917, 0.315338224, 0.162157208,
          0.0332076885, 0., 0.00886095874, 0.010271539, 0.,
          0.00575819984, 0.224759042, 0.134012654, 0.0951059759,
          0.0853672996, 0., 0.0396500155, 0.0954753533, 0.0993272662,
          0.344801247, 0.0726307482, 0.0724059865, 0.0490673035,
          0.0758622661, 0., 0.0930395424, 0.0897573382, 0.380347878,
          0.0785994604, 0., 0., 0., 0., 0., 0., 0.260113686, 0.151738867,
          0.103236295, 0., 0., 0., 0., 0.0194813311, 0.361097962,
          0.163065076, 0.0773717165, 0.0601896606, 0.0873336047,
          0.0748698562, 0., 0.176111162, 0.164926589 ]
      - [ 0.20400393, 0.0143644456, 0.128763914, 0.0652871132,
          0.0651284531, 0.108070552, 0.0368404686, 0.149690047,
          0.150008455, 0.0481575578, 0., 0., 0.012918314, 0.0126969619,
          0.00828792807, 0.269824028, 0.297629327, 0.0788244158,
          0.00679986784, 0.0389694795, 0.0418054573, 0., 0.11697004,
          0.151402399, 0.22649771, 0., 0., 0.00438170834, 0., 0.,
          0.0141149284, 0.15661478, 0.154668227, 0.109576829, 0., 0.,
          0.093326427, 0.0837119967, 0.151554167, 0.269020498,
          0.241718143, 0., 0., 0.0283028837, 0., 0., 0., 0.228638142,
          0.252142459, 0.00594994845, 0., 0., 0.00995552447, 0.,
          0.0513618961, 0.306839556, 0.269167066, 0.0726740509, 0.,
          0.0574554652, 0.0943919346, 0.0586570427, 0.084663637,
          0.263287723 ]
      - [ 0.139713913, 0.0753087699, 0.100188315, 0.104231738,
          0.0709280148, 0.0849409103, 0.0764560178, 0.171022534,
          0.12312039, 0.0386084244, 0., 0.0238463674, 0.0101783304,
          0.00507338485, 0.0166558996, 0.325064361, 0.179737195,
          0.101167567, 0.0131329903, 0., 0.013392291, 0.00579308625,
          0.00698833028, 0.166809097, 0.21681495, 0.118867926,
          0.0729615465, 0.0265286975, 0.0305467639, 0.0747057647,
          0.127890766, 0.275393456, 0.14988175, 0., 0.0867283195, 0.,
          0.117009297, 0.0732633993, 0.0679631084, 0.351126939,
          0.151023135, 0.053369008, 0., 0., 0.00897644367, 0.00770058995,
          0.100785397, 0.205132708, 0.190774381, 0., 0., 0.,
          0.00678555341, 0., 0.0263276733, 0.332222939, 0.18186672,
          0.104394227, 0.0910268128, 0.0582448542, 0.0682612136,
          0.076556094, 0.121917941, 0.251133621 ]
      - [ 0.148169145, 0.0584159009, 0.134760007, 0.0970023647,
          0.00933922827, 0.108926669, 0.0962786004, 0.133259982,
          0.133689404, 0.0463493727, 0., 0.023561107, 0.0104415743,
          0.0413468927, 0.0650232956, 0.312030524, 0.216317445,
          0.0389667451, 0., 0., 0.00738330791, 0., 0.0505991615,
          0.146422178, 0.225742206, 0.0896538794, 0.0626715273,
          0.00527222967, 0.0431542955, 0.0498156995, 0.11334531,
          0.289517701, 0.133323327, 0.0949442014, 0., 0., 0.0850756168,
          0.102080815, 0.0807722807, 0.348059833, 0.152285084,
          0.057906948, 0.0233690552, 0.0407599732, 0.0112367738,
          0.0365002081, 0.101429388, 0.201841742, 0.200171396,
          0.060615249, 0., 0., 0., 0., 0.0128637124, 0.353090167,
          0.198460355, 0.0909517556, 0.0606449395, 0., 0.0818868056, 0.,
          0.0456293188, 0.256333143 ]
      - [ 0.191614613, 0.0857961029, 0.0947869346, 0.104079463,
          0.0121750543, 0.0691917315, 0.0935018063, 0.204158932,
          0.100294605, 0.00574472174, 0., 0.00429518148, 0.00874180067,
          0., 0.0202122051, 0.305831522, 0.161340564, 0.033012744, 0.,
          0.00429518148, 0.00836704485, 0., 0., 0.233312443, 0.119226716,
          0.0946074575, 0.085411787, 0.00429518148, 0.0802115947,
          0.0659791902, 0.0990563035, 0.344808728, 0.0728621855,
          0.0720976815, 0.0483463593, 0.0694855228, 0.066155687,
          0.0726877004, 0.0902124494, 0.380407244, 0.0782665387, 0., 0.,
          0., 0., 0., 0., 0.260879964, 0.151334286, 0.102625243, 0., 0.,
          0., 0., 0.0192336347, 0.365702003, 0.149292648, 0.0772340745,
          0.0603520423, 0.0865221694, 0.0743550584, 0., 0.176114142,
          0.164831713 ]
      - [ 0.214595318, 0.10301201, 0.0883068889, 0.172597617,
          0.139757335, 0.142747819, 0.0627268106, 0.00478712283,
          0.087676689, 0.0689448491, 0.105864704, 0.125679404,
          0.167586565, 0.0817064047, 0.0936873928, 0.135361061,
          0.254760027, 0.0609282963, 0.0887822062, 0.0077374652,
          0.0805848837, 0.0646407157, 0.123195492, 0.161732003,
          0.219849631, 0.00715841865, 0.0685353652, 0., 0.0864997059,
          0.128890857, 0.136903524, 0.157144621, 0.140232563,
          0.0991184488, 0., 0.190353647, 0.0467140675, 0.084292531,
          0.104154103, 0.187705547, 0.266277581, 0.107375599,
          0.0858860388, 0.0398381278, 0.060886085, 0.100143306,
          0.02494766, 0.174503952, 0.244172648, 0.0681098029, 0., 0.,
          0.00810080301, 0.0511880293, 0.0620254651, 0.0891473666,
          0.289995968, 0.214563727, 0.0440188758, 0., 0., 0.,
          0.0961713195, 0.184497014 ]
      - [ 0.245903969, 0.157927379, 0.0886428505, 0.1027923, 0.17982696,
          0.126209691, 0.0596022084, 0.0947042331, 0.121523365,
          0.0784123912, 0.00819068402, 0.116068445, 0.121767111,
          0.117470659, 0.133736312, 0.165298343, 0.147305429,
          0.132785559, 0., 0.00527792471, 0.0146381315, 0.00627654558,
          0.0819073394, 0.144424871, 0.146549687, 0.184789911, 0.,
          0.0804995969, 0.00991606992, 0.0809610114, 0.237121031,
          0.243613005, 0.172565892, 0.0922373906, 0.0941152498, 0.,
          0.033306215, 0.0650178939, 0.0599405207, 0.180463508,
          0.337702274, 0.0894917473, 0.0107185533, 0., 0.0570936538,
          0.0510682724, 0.116967708, 0.103534073, 0.170150131,
          0.0651864931, 0., 0., 0., 0., 0.0061133788, 0.154089704,
          0.308034241, 0.163803846, 0., 0.0751119629, 0.0389222614,
          0.0988197625, 0.142856568, 0.135913238 ]
      - [ 0.279782146, 0.0913838968, 0.0865595862, 0.146556839,
          0.136300057, 0.00622236403, 0.00989692751, 0.0925957635,
          0.149201483, 0.00868612435, 0.104399696, 0.0849951953,
          0.112527773, 0.147329614, 0.122225873, 0.157511637,
          0.190461874, 0.181504145, 0.0172967482, 0.00994486548,
          0.0544506721, 0.107648373, 0.0141376136, 0.127141193,
          0.121625416, 0.112479486, 0., 0.013447837, 0.0398151837,
          0.176329374, 0.135694712, 0.165580943, 0.165998206,
          0.122736476, 0.043434035, 0.104563564, 0.106321119, 0.05217994,
          0.114513502, 0.215472877, 0.286121637, 0.127702206,
          0.0528628118, 0.131095588, 0.091395095, 0.0498571135,
          0.0972466022, 0.0900973976, 0.199272409, 0.0699620172, 0., 0.,
          0.0357505046, 0.0792393312, 0.00622236403, 0.158363193,
          0.288675368, 0.177679822, 0.152714431, 0.0544896424,
          0.0565397292, 0.0589721389, 0.158937946, 0.0994016454 ]
      - [ 0.327992797, 0.119964525, 0.05063444, 0.120130233,
          0.0729907602, 0., 0.114276357, 0.173053458, 0.110457197,
          0.0747012347, 0.0812049657, 0.0482815653, 0.0161635932,
          0.0210979357, 0.0838692784, 0.229129106, 0.215010867,
          0.12289308, 0.0153077701, 0.0104956003, 0.0177859664,
          0.0788260549, 0.113746703, 0.0643445626, 0.179361746,
          0.12529324, 0.102223396, 0., 0.0882543996, 0.0930038989,
          0.192075968, 0.230901033, 0.143370986, 0.0912488624,
          0.0542953312, 0.0467135906, 0.0855655, 0.0696486309,
          0.0793986022, 0.217237383, 0.318864733, 0.0843679532,
          0.00624072133, 0.0371409059, 0.0689533576, 0.063464269,
          0.0589028858, 0.101911709, 0.175246313, 0.0545892678, 0., 0.,
          0.0791447461, 0., 0.0085962778, 0.108938262, 0.311948806,
          0.144647717, 0.140147835, 0.11115507, 0.0810422972,
          0.0772854611, 0.118175425, 0.119739965 ]
      - [ 0.296497852, 0.175076842, 0.10627982, 0.119601384,
          0.0778017417, 0.102339163, 0.0743650794, 0.137211278,
          0.177527979, 0.0393981375, 0., 0.0515179597, 0.0104845138,
          0.0657017231, 0.0794737488, 0.192305982, 0.14231956,
          0.178784832, 0.0527359135, 0.00696662953, 0.00838512369,
          0.091071561, 0.104770288, 0.0993962884, 0.16258274,
          0.143885583, 0.0554278307, 0.0804504901, 0.0127244452,
          0.200832531, 0.167656437, 0.220820412, 0.137354165, 0.,
          0.145408571, 0.0898057148, 0.0976266041, 0.140791535,
          0.118715823, 0.117463477, 0.289354831, 0.134069368,
          0.0915756971, 0.0940265059, 0.0659671649, 0.0842153504, 0.,
          0.0893431976, 0.135083258, 0.0734632909, 0., 0.0358168706,
          0.076424703, 0., 0.0597322732, 0.0709438026, 0.326002568,
          0.130783945, 0.120816819, 0.0641737431, 0., 0.0847860575,
          0.0881535038, 0.181911647 ]
      - [ 0.335660815, 0.0883028582, 0.0804002434, 0.105260096,
          0.0592032336, 0.0898208246, 0.0879761279, 0.155192763,
          0.147653535, 0.0756514519, 0.0807346478, 0.0276778992,
          0.0110286493, 0.00760885514, 0.126261219, 0.208794236,
          0.131388888, 0.182574064, 0.0239670593, 0.00490300497,
          0.00871891249, 0.0326273441, 0.00567911239, 0.164869592,
          0.162656873, 0.116312549, 0.0797398612, 0.119118318,
          0.0581668988, 0.139584288, 0.224613309, 0.15588446,
          0.112516426, 0.10300564, 0.0596238524, 0.116300926,
          0.0604122989, 0.0638188645, 0.00463697547, 0.224453315,
          0.32093516, 0.0564321019, 0.0651788116, 0.0499920174,
          0.101076014, 0.0550623611, 0.0828494206, 0.0961903483,
          0.167839572, 0.102951914, 0.0459183492, 0.0728354752, 0.,
          0.0649578646, 0.0998458564, 0.116562612, 0.215787783,
          0.232491404, 0.145744547, 0., 0.073957704, 0.152284935,
          0.0705102459, 0.127071694 ]
      - [ 0.259687454, 0.148177236, 0.157155141, 0.223455533,
          0.145822987, 0.0080977371, 0.0146318534, 0.110051692,
          0.106364101, 0.111414298, 0.10130056, 0.00680935802,
          0.164125994, 0.126458645, 0.174697101, 0.0782034546,
          0.246292561, 0.0892403796, 0.01404153, 0.00680935802,
          0.0478712209, 0.142682001, 0.0091073839, 0.102845468,
          0.0726271793, 0.130539238, 0.0931628942, 0.0797873512,
          0.128600106, 0.229696691, 0.172211796, 0.226038903,
          0.0680690557, 0.115263641, 0.088549383, 0.0629371554,
          0.0855235085, 0.0969449803, 0.11056266, 0.230913386,
          0.266657978, 0.13561219, 0.0508164316, 0.100358069,
          0.00765836658, 0.103731878, 0.00643989304, 0.148447722,
          0.0258409437, 0., 0.0158828739, 0.00680935802, 0.0086466819,
          0.0080977371, 0.0136610763, 0.0180158671, 0.314004391,
          0.153357163, 0.116949014, 0.111185953, 0.0274980925, 0.,
          0.0131033314, 0.0374851339 ]
      - [ 0.266131043, 0.0736146122, 0.0879958123, 0.0829197541,
          0.0952770337, 0.0968860835, 0., 0., 0.0440586433, 0.0671851933,
          0.0663194209, 0.161604002, 0.191292629, 0.179738253,
          0.0729448572, 0.164014459, 0.223319665, 0.12951982,
          0.107332028, 0.124688782, 0.159865916, 0.0903707147,
          0.0997829512, 0.0484807566, 0.131151512, 0.0656624883,
          0.132259563, 0.0821848214, 0.156807587, 0.131850243,
          0.121031068, 0.169841155, 0.155765355, 0.126228854,
          0.0545608327, 0., 0.046646513, 0.0613418296, 0.0539904013,
          0.197339669, 0.363272846, 0.062844649, 0.0452139452, 0.,
          0.0102123944, 0.0701914802, 0.0975114331, 0.11777202,
          0.180781096, 0.100497432, 0.0519259982, 0., 0.0109673301,
          0.0331706852, 0.0987327546, 0.112099163, 0.270548105,
          0.184464276, 0.148749366, 0.0623084977, 0.0619090721,
          0.0606331117, 0.110467583, 0.0480783544 ]
      - [ 0.280596524, 0.100155234, 0.125008389, 0.0255838614,
          0.0340291038, 0.0920550525, 0.104463086, 0.0346658304,
          0.0386006385, 0.0778511837, 0.109302938, 0.10958384,
          0.192258969, 0.152526826, 0.089937225, 0.184245408,
          0.194885507, 0.14596352, 0.132994875, 0.0117254527,
          0.184859782, 0.137181893, 0.0463225655, 0.0575623363,
          0.0763451979, 0.0879890993, 0.140990138, 0.145090103,
          0.165863335, 0.111714527, 0.117688976, 0.16495496, 0.151062131,
          0.0427875444, 0., 0., 0., 0., 0.00872284453, 0.206821188,
          0.369060755, 0.0750302747, 0., 0., 0.035103038, 0.00804129243,
          0.0882461593, 0.153073117, 0.114726789, 0.0955600441, 0., 0.,
          0., 0.0958456248, 0.114463016, 0.167037606, 0.215454102,
          0.126267165, 0.176208615, 0.138211966, 0., 0.0744444504,
          0.0949002802, 0.164081603 ]
      - [ 0.256752521, 0.11685811, 0.158156157, 0.122825369, 0.155436978,
          0.0492160842, 0.00614657998, 0.105682582, 0.0866935179,
          0.066701524, 0.0835858658, 0.123199984, 0.140382141,
          0.113777623, 0.199381948, 0.117908873, 0.154874817,
          0.172953442, 0.00801338907, 0.00530658849, 0.0115955081, 0.,
          0.0940633416, 0.0991855338, 0.0746455267, 0.0831159055,
          0.156535476, 0., 0.0934549868, 0.169516191, 0.190613583,
          0.0899836868, 0.0893168673, 0.108828016, 0.0889782235,
          0.103868201, 0.0555362217, 0.0485614203, 0.0433923863,
          0.253565699, 0.316348821, 0.0995430052, 0., 0.0744696483,
          0.162893265, 0., 0.104428045, 0.122406736, 0.14422904,
          0.098849453, 0., 0.0528106578, 0., 0.075901702, 0.,
          0.121199936, 0.26677224, 0.156217411, 0.202349842,
          0.0640229136, 0.0881932974, 0.077574566, 0.169910073,
          0.123307124 ]
      - [ 0.298872918, 0.119788364, 0.0668178126, 0.160102695,
          0.101637855, 0.0116179008, 0.0093661733, 0.00748635922,
          0.0126296673, 0.0087598972, 0., 0.0796670467, 0.151602075,
          0.0599433631, 0.165483221, 0.168005809, 0.270815551,
          0.159809381, 0.121826127, 0.00748635922, 0.0973289832,
          0.0712622851, 0.00613159919, 0., 0.125413626, 0.0533672832,
          0.0731538907, 0.149413943, 0.0123322727, 0.190697908,
          0.137117729, 0.188293323, 0.0840919465, 0.0703573823,
          0.0815860555, 0.081878297, 0.0107739521, 0., 0.058851596,
          0.403192997, 0.134321198, 0.00613159919, 0., 0.0830463096,
          0.0896914452, 0.0588265136, 0.0373709202, 0.0856091082,
          0.105834968, 0.0730031207, 0.051205691, 0.0925845727,
          0.0460950099, 0., 0.037963137, 0.134409487, 0.34347865,
          0.186121687, 0.166263729, 0.00895795971, 0.101474606,
          0.106633067, 0.0868387073, 0.0762581825 ]
      - [ 0.300516427, 0.168145284, 0.0999335945, 0.158049881,
          0.01709144, 0.0448827222, 0.00503759133, 0.00676384708,
          0.0430022255, 0., 0.0421652421, 0.119720712, 0.0487907678,
          0.0881093815, 0.165744171, 0.140665531, 0.218249291,
          0.203841239, 0.0434767641, 0.00676384708, 0.0141327176,
          0.0794303343, 0.0458146259, 0.0578503013, 0.126351193,
          0.0778255612, 0.1206512, 0.0776415691, 0.0915033296,
          0.167194486, 0.135717154, 0.240567431, 0.0626177043,
          0.0287476815, 0.0430417061, 0.113257013, 0.00753295608, 0.,
          0.00616976386, 0.406865269, 0.135488749, 0.00616976433,
          0.00878533628, 0.0406611413, 0.0872925147, 0.0695203394,
          0.0475232787, 0.0862020999, 0.102712743, 0.0669923723,
          0.0910808071, 0.0450122878, 0.0983878523, 0.0172816571,
          0.0342319123, 0.268336087, 0.189060554, 0.277932674,
          0.095786199, 0.106270336, 0.107309304, 0.103275232, 0.11792089,
          0.0708657652 ]
      - [ 0.25178948, 0.111484461, 0.0819714814, 0.152923331,
          0.134787574, 0., 0.0335879922, 0.119040772, 0.139273837,
          0.126157075, 0.0782846734, 0.101332143, 0.0827120095,
          0.123750001, 0.129333869, 0.175472349, 0.215436429,
          0.114057101, 0.097857669, 0.0955153331, 0.0680014566,
          0.131014988, 0.100044139, 0.0932502896, 0.129206657,
          0.12368685, 0.111869879, 0.142353773, 0.096060656,
          0.0873226896, 0.168959603, 0.139814481, 0.124398611,
          0.134039164, 0., 0.0431373008, 0.074156411, 0.0631379932,
          0.0886829048, 0.241122738, 0.230131581, 0.124319352,
          0.0886843875, 0.110470571, 0.0833595321, 0., 0.14790763,
          0.112532742, 0.247977868, 0., 0.0809119642, 0.0689542592,
          0.0770572573, 0., 0., 0.059323661, 0.313866228, 0.153802216,
          0.150613546, 0., 0., 0.0336250104, 0., 0.147930726 ]
      - [ 0.223653346, 0.0975539014, 0.139234796, 0.132231608,
          0.118685886, 0.0688675568, 0.0885580778, 0.072260797,
          0.16125226, 0.11803598, 0.121978812, 0.10642805, 0.0966316685,
          0.0995693579, 0.134411752, 0.146927908, 0.20273225,
          0.129182473, 0.0770932436, 0.142428249, 0.108520076,
          0.0919155031, 0.139881179, 0.0477162749, 0.119963355,
          0.116256207, 0.0647550449, 0.158813238, 0.138442501,
          0.148649171, 0.101087973, 0.144444764, 0.184523016,
          0.0629216954, 0.140854418, 0.0962737352, 0.0524445735,
          0.0342201702, 0.0743447766, 0.166911304, 0.300444841,
          0.089589119, 0.0431535468, 0.128694624, 0.116250068,
          0.0677539334, 0., 0.16380167, 0.213024706, 0.051412262,
          0.0467966795, 0.0635971725, 0.0556457862, 0.0979973823,
          0.0333564505, 0.160790637, 0.230566204, 0.171211779,
          0.142912224, 0.0518560708, 0.0443563052, 0.0642132834,
          0.0797773525, 0.113371395 ]
      - [ 0.264322907, 0.0672581717, 0.0938592479, 0.110007457,
          0.0541341603, 0.0664919019, 0.110918149, 0., 0.116931312,
          0.118395023, 0.0385426208, 0.0837272406, 0.0636091754,
          0.0569206551, 0.0723552033, 0.268048197, 0.183096647,
          0.115783617, 0.0053453031, 0.00725841941, 0.0611881316,
          0.0787684172, 0.0493168756, 0., 0.143671796, 0.105057202,
          0.0053453031, 0.0743863732, 0.141997084, 0.123186283,
          0.126640335, 0.222419262, 0.208837777, 0.0754009709,
          0.0690715164, 0.0823686123, 0.0646709353, 0., 0.0576274917,
          0.209283054, 0.371101677, 0.148620307, 0.0053453031, 0.,
          0.0597407408, 0.0562504753, 0., 0.175276473, 0.154382423,
          0.0424949378, 0.0698595271, 0.0276445523, 0.00799309183, 0.,
          0.108618781, 0.216573149, 0.266870886, 0.15300864,
          0.0661747977, 0.110504806, 0.0886690468, 0.0795086548,
          0.071697548, 0.192266837 ]
      - [ 0.229427874, 0.112732679, 0., 0.079853572, 0.164954409,
          0.100933507, 0.128059208, 0.1033234, 0.190934062, 0.0564388633,
          0.118804395, 0., 0.0819655508, 0., 0.150218993, 0.225986332,
          0.156034842, 0.145447418, 0.0240452718, 0., 0.0111504626,
          0.0290750228, 0.0839203, 0.115334205, 0.162588388, 0.095791094,
          0.0924783871, 0.0615903251, 0.188492551, 0.138422519,
          0.139583424, 0.0840208828, 0.147734374, 0.0874651,
          0.0981666297, 0.0644517094, 0.119142734, 0.154954642,
          0.0845717862, 0.152066082, 0.28013429, 0.0883993283,
          0.126317114, 0.116914995, 0.173857272, 0.147576839,
          0.0513573289, 0.177431509, 0.195030123, 0.0791823342,
          0.027998114, 0.06473995, 0.101981342, 0.0679737031,
          0.106121995, 0.0922314227, 0.217906967, 0.109848656,
          0.139954954, 0.128879324, 0.116015196, 0.0703482404,
          0.121670604, 0.0793256685 ]
      - [ 0.24783209, 0.113432467, 0.0944621637, 0.112022907,
          0.168408141, 0.121344872, 0.179833665, 0.0373777859,
          0.198257759, 0.032612294, 0., 0.0629343092, 0.0683408007,
          0.124738745, 0.1744093, 0.153737053, 0.135974169, 0.145353392,
          0.00660497975, 0.00437391829, 0.00821763929, 0.0420018882,
          0.128792629, 0.0989240482, 0.146440879, 0.169271916,
          0.0927643701, 0.0916901752, 0.109465331, 0.180971473,
          0.153753132, 0.110226542, 0.161752462, 0.0564013198,
          0.0806774274, 0.122773521, 0.118960865, 0.076566115,
          0.10443408, 0.0638710484, 0.297905743, 0.136320785,
          0.0668391213, 0.108504437, 0.123505786, 0.112477973,
          0.119262822, 0.132263064, 0.224006921, 0.0620005541,
          0.0971061438, 0.0870000273, 0.0687191412, 0.0745019689,
          0.120362893, 0.0957659036, 0.165498137, 0.118530303,
          0.19825986, 0.0916164741, 0.0486185476, 0.0763457417,
          0.127638668, 0.0747435242 ]
      - [ 0.267653883, 0.162278652, 0.0915636197, 0.0766092166,
          0.0920698121, 0.0702098757, 0.0643710196, 0.0759600028,
          0.137227669, 0.0543968379, 0.0780469701, 0.0826863721,
          0.0677838326, 0.10474959, 0.132037655, 0.115819551,
          0.184438527, 0.141298831, 0.126166523, 0.0666656569,
          0.067058742, 0.043895524, 0.0368377157, 0.0199840236,
          0.0753206983, 0.0616169609, 0.00503863301, 0.0042369687,
          0.140667617, 0.0910552144, 0.178697422, 0.129844755,
          0.192471415, 0.0927816853, 0.112056457, 0.105964772,
          0.119670875, 0.0936161056, 0.125125572, 0.12648347, 0.2693775,
          0.139515445, 0.0764388666, 0.103669435, 0.141915143,
          0.0836120844, 0.0960292518, 0.0993236229, 0.229148045,
          0.0692451894, 0., 0.0527767055, 0.0451240726, 0.045963984,
          0.131423458, 0.0689545274, 0.354296893, 0.195163533,
          0.172401652, 0.098025322, 0.0676560774, 0.0438468605,
          0.0770058781, 0.183724105 ]
      - [ 0.346705794, 0.108780921, 0.0120163783, 0.0675622299,
          0.0940504298, 0.0564431846, 0.0610023253, 0.0689167455,
          0.130929351, 0.0450657457, 0.0593012832, 0.00525100995,
          0.0151139237, 0., 0.0707809478, 0.249429896, 0.17063418,
          0.148218989, 0.071120441, 0.00525100995, 0.018453693,
          0.0118686501, 0.0105924793, 0.00848724879, 0.131262839,
          0.0993952826, 0.137931913, 0., 0.0151503738, 0.190285683,
          0.202527642, 0.193488941, 0.121939369, 0.0339354686,
          0.055905316, 0.046559792, 0.0891687796, 0.0802617818,
          0.0313915573, 0.220981136, 0.35681048, 0.0886805579,
          0.0854658335, 0.064156279, 0.0733580515, 0.0523828231,
          0.0636364371, 0.0549260713, 0.152729705, 0., 0.0413168818,
          0.050962206, 0., 0., 0., 0.100097932, 0.329310179, 0.24504672,
          0.114469573, 0.0910655782, 0.106776908, 0.11390435,
          0.0844255984, 0.168394506 ]
      - [ 0.214773655, 0.170804381, 0.103061371, 0.175250053,
          0.0840817019, 0.114800148, 0.0389843993, 0., 0.138855115,
          0.0739115104, 0.108809628, 0.131192729, 0.114098616,
          0.101517573, 0.148673758, 0.154581144, 0.202731967,
          0.0756838322, 0.157160491, 0.05104056, 0.0144723896,
          0.0885136575, 0.0380313061, 0.111242309, 0.186159074,
          0.125825986, 0.0708331242, 0.0949891657, 0.157268435,
          0.0988135263, 0.167744547, 0.139443994, 0.183262393,
          0.0909959748, 0.0714901239, 0., 0.0846788287, 0.0623122454,
          0.028858738, 0.187921271, 0.299095392, 0.126876831,
          0.053347338, 0.126742423, 0.0644634813, 0.0526089631,
          0.0743883625, 0.103003725, 0.216798276, 0.0188322868,
          0.0347569846, 0., 0.0487352461, 0.0538479984, 0.00323743979,
          0.0615481362, 0.294156104, 0.199824646, 0.134129956, 0., 0.,
          0.0918008462, 0.0878483951, 0.1895549 ]
      - [ 0.165304825, 0.0920529813, 0.134881392, 0.157304689,
          0.202435255, 0.0494321808, 0.00753675634, 0., 0.133610919,
          0.0853024647, 0.0880919695, 0.137101844, 0.136412382,
          0.118628271, 0.133776784, 0.110316016, 0.19928053,
          0.0982735902, 0.120143436, 0.0119938189, 0.104521163, 0.,
          0.0721962973, 0.0744590238, 0.111189611, 0.0905124694,
          0.0542044565, 0.0498811342, 0.133015364, 0.160259128,
          0.144645989, 0.143175274, 0.170924708, 0.143105388,
          0.129406229, 0., 0.122575872, 0.077175118, 0.111454815,
          0.23277235, 0.215371877, 0.133905411, 0.0963649675,
          0.121071868, 0.0767417699, 0.12374524, 0.103686661,
          0.114762522, 0.205232218, 0.111380927, 0.0489688367,
          0.00686819246, 0.0668048933, 0.0854045972, 0.108482838,
          0.17799218, 0.281899065, 0.17363967, 0.12011455, 0.0944195688,
          0.0335382819, 0.104927599, 0.08601477, 0.121897571 ]
      - [ 0.24099052, 0.0335528776, 0.0417357497, 0.153978556,
          0.199985608, 0.0544606261, 0.0634734854, 0.0596838854,
          0.111420132, 0.094036296, 0.0915682763, 0.12092685,
          0.142129824, 0.0995124429, 0.094266519, 0.0940296277,
          0.253293544, 0.0612214245, 0.0929520503, 0.0930020809,
          0.106397256, 0.0806622133, 0.161270559, 0.162252709,
          0.193477482, 0.0935475677, 0.0824795142, 0.0570098832,
          0.0870538875, 0.138170615, 0.130498543, 0.100289032,
          0.172686145, 0.0723477677, 0.0679346621, 0.141636044,
          0.12687242, 0.111172475, 0.0889438912, 0.130359024,
          0.285692006, 0.0254567973, 0.0432010181, 0.121458568,
          0.114703879, 0.0147685744, 0.0187807344, 0.085788466,
          0.282219678, 0.0344414711, 0., 0., 0.00698168902,
          0.00547355646, 0., 0.136803344, 0.351791531, 0.142071411, 0.,
          0.0317577422, 0.00906692166, 0.0786806047, 0.0635879412,
          0.139240801 ]
      - [ 0.193727463, 0.203160763, 0.111244179, 0.0941059738,
          0.159724385, 0.102784023, 0.111169264, 0.0280712135,
          0.0645672008, 0.0228420123, 0.127234086, 0.0840494931,
          0.128678739, 0.0934663564, 0.114151761, 0.160302222,
          0.164839685, 0.168080181, 0.0524426736, 0.00709492015,
          0.145962328, 0.0227249544, 0.00474465918, 0.120218419,
          0.0882481188, 0.073376745, 0.161264226, 0.125845924,
          0.128359959, 0.195420846, 0.157884523, 0.240270734,
          0.179202095, 0., 0.0745047182, 0.0396971703, 0.00501686614,
          0.0464380831, 0.127364591, 0.192702726, 0.175623283,
          0.219900668, 0.15385665, 0., 0.076754503, 0.0950463563,
          0.0704560429, 0.0418851711, 0.169631124, 0.0893115029, 0.,
          0.0554168187, 0.0758201703, 0.038713377, 0.171470329,
          0.198489591, 0.237458527, 0.144430354, 0.196917802,
          0.0435301289, 0.0429719016, 0.056616962, 0.0890809521,
          0.0764769763 ]
      - [ 0.257188171, 0.15556708, 0.0913584307, 0.0733474195,
          0.0880408511, 0.0531413294, 0.0686975271, 0.103471205,
          0.169569656, 0.114777163, 0.0793826655, 0.13231048,
          0.127288103, 0.0869762748, 0.103925779, 0.147509515,
          0.154852957, 0.101406783, 0.115082629, 0.120321803,
          0.169923976, 0.0636403635, 0.0588185526, 0.106187701,
          0.173512787, 0.163414225, 0.113579959, 0.0786628351,
          0.111701801, 0.102586031, 0.106176808, 0.157844901,
          0.180652171, 0.0747659951, 0.0391264781, 0.112113178,
          0.12559177, 0.0759660304, 0.0749240965, 0.163831338,
          0.232070059, 0.188095495, 0.0588211492, 0.100761563,
          0.0942050517, 0.0876103565, 0.0517683886, 0.127761558,
          0.293977618, 0.150830805, 0., 0.0702737793, 0.0712598637,
          0.0615331642, 0.0716085806, 0.153480932, 0.189355567,
          0.142950639, 0.113126457, 0.100743286, 0.107453145,
          0.0563791692, 0., 0.113062777 ]
      - [ 0.244320109, 0.122788727, 0.0809853524, 0.164295375,
          0.186564431, 0.0669459999, 0.0616253205, 0.00991732534,
          0.124485761, 0.0696452707, 0.115027189, 0.0983809829,
          0.109488092, 0.103880033, 0.107658543, 0.185736269,
          0.160395563, 0.134331435, 0.0177904908, 0.0112326127,
          0.0194059145, 0.110178337, 0.0131028173, 0.079594247,
          0.153724328, 0.0858066827, 0.11211092, 0.00925460923,
          0.0934907049, 0.138108462, 0.221637174, 0.18644008, 0.16041708,
          0.0420857444, 0.141623795, 0.00727071753, 0., 0.0730642974,
          0.0998921096, 0.216925889, 0.306491017, 0.0626702681,
          0.128304631, 0.11486043, 0., 0., 0.138657361, 0.133355528,
          0.18913573, 0., 0., 0.0531863421, 0.0590717606, 0.,
          0.0753390491, 0.0960686058, 0.317206591, 0.166932225,
          0.116545312, 0.00727071753, 0., 0.132411525, 0.132254437,
          0.0955409706 ]
      - [ 0.299318939, 0.208743438, 0.067364037, 0.104846768,
          0.0793446451, 0., 0.0700948015, 0.0643290877, 0.160993934,
          0.084097378, 0.052437447, 0.0543161407, 0.0635926723, 0.,
          0.154695228, 0.148627222, 0.102820471, 0.186705619,
          0.106746048, 0., 0.0709859058, 0.0447292216, 0.0819905847,
          0.0578368828, 0.0786280856, 0.122886926, 0.13468504,
          0.119421445, 0.088680476, 0.196451217, 0.196459308,
          0.154917151, 0.123622, 0.138274625, 0.0802522749, 0.0935868323,
          0.0801147893, 0.104430333, 0.0958454907, 0.150237143,
          0.358475626, 0.077174902, 0.047678344, 0.104035161,
          0.0638664588, 0.0879336745, 0.0606302992, 0.059182331,
          0.108763486, 0.0524105392, 0.0627298355, 0.0557008572,
          0.0804018825, 0., 0.056774307, 0.196925864, 0.226214975,
          0.121805906, 0.188551143, 0.132688537, 0.133343503,
          0.142407075, 0.118444279, 0.0629345104 ]
      - [ 0.166841701, 0.136143118, 0.11358688, 0.15046601, 0.159766853,
          0., 0.012471756, 0.0109887673, 0.0522685014, 0.0393699557, 0.,
          0.175937369, 0.121683531, 0.116506197, 0.180081293,
          0.211879238, 0.179337963, 0.195846125, 0.11801374, 0.172721162,
          0.163827047, 0., 0.0068433783, 0.0170534346, 0.116676889,
          0.0346871801, 0.141736865, 0.0647850558, 0.037703339,
          0.146028504, 0.204798833, 0.122084752, 0.119292744,
          0.0453942157, 0.0069478876, 0.147385359, 0.123570234,
          0.0942877755, 0.182695657, 0.221594721, 0.225803316,
          0.172972217, 0.031636171, 0., 0.0634574965, 0.0985691473,
          0.0719134212, 0.0857622772, 0.0458563976, 0.0867121145,
          0.121434733, 0.0750645176, 0.00958573446, 0., 0.120924272,
          0.196640939, 0.0877279937, 0.266373694, 0.19778195,
          0.0378451087, 0.172006115, 0., 0.0364057422, 0.069405891 ]
      - [ 0.247357056, 0.202369004, 0.173988476, 0.170307785,
          0.0982304886, 0.0742396042, 0.032025449, 0., 0.0723138228,
          0.0717206076, 0.0642421916, 0.0939091817, 0.0564216636,
          0.0908366069, 0.120270811, 0.235735983, 0.178382456,
          0.140316188, 0., 0.0689417049, 0.0920707583, 0.141281158, 0.,
          0., 0.115970604, 0.140889809, 0.114959694, 0.122962251,
          0.140204296, 0.204747394, 0.262044579, 0.144454733,
          0.0536689572, 0.0202364605, 0.0385145433, 0.0115745272,
          0.0129865957, 0.0225460511, 0.0345253795, 0.35433501,
          0.22577922, 0.0198132917, 0.0148029355, 0.00525652478,
          0.0093475692, 0.0275397785, 0.0459181741, 0.0131022399,
          0.0886854902, 0.07158456, 0.0708482042, 0., 0., 0.,
          0.0222462751, 0.296642929, 0.228531137, 0.152138382, 0., 0.,
          0.102081284, 0.120052397, 0.12487863, 0.103866324 ]
      - [ 0.204701021, 0.119663991, 0.106871776, 0.107239097,
          0.168162286, 0.117258795, 0.0916361362, 0.00472191395,
          0.125002399, 0.106815107, 0.0934723094, 0.128278494,
          0.182133079, 0.0966252461, 0.166487977, 0.160915032,
          0.112655997, 0.145756364, 0.154232726, 0.00763206743,
          0.00961031206, 0.122213379, 0.122368798, 0.100466333,
          0.127949402, 0.0877022967, 0.101769194, 0.00763206743,
          0.0630838126, 0.189676389, 0.161452249, 0.164360151,
          0.154341221, 0.158151418, 0.0587192141, 0., 0.0555102266,
          0.0871849358, 0.102324858, 0.191536427, 0.269358307,
          0.0951489583, 0.0630504414, 0.128995106, 0.10981793,
          0.096354194, 0.0577779934, 0.123631418, 0.16584745,
          0.0754696354, 0.0727161095, 0.0673682541, 0.0148794642,
          0.0534798168, 0.039437253, 0.0727680773, 0.322635293,
          0.132191211, 0.142642617, 0., 0., 0.0625997409, 0.140892893,
          0.160351738 ]
      - [ 0.177800879, 0.109829664, 0.128776968, 0.141591921,
          0.173810363, 0., 0.0745956898, 0., 0.11360047, 0.079948239,
          0.120275408, 0.111610472, 0.161120847, 0.145521477,
          0.136112809, 0.157450065, 0.122253001, 0.170076981,
          0.130849987, 0., 0.0150331911, 0.114931792, 0.0477181673,
          0.100901134, 0.156410694, 0.00937944558, 0., 0.0517044961,
          0.101522915, 0.13337183, 0.161271498, 0.190088496, 0.155979812,
          0.111351669, 0.128908783, 0.091041714, 0.0475426018,
          0.0609184913, 0.073808901, 0.237983584, 0.24881041,
          0.144839242, 0.105933286, 0.07923612, 0.130134493, 0.103043728,
          0.0963648334, 0.103516474, 0.144490883, 0.139622629, 0., 0.,
          0., 0.0409467258, 0.102665573, 0.096808359, 0.318216532,
          0.160867885, 0.143923044, 0.0681671873, 0.0490626767,
          0.0859081522, 0.141215056, 0.145166829 ]
      - [ 0.148305804, 0.0967382118, 0.147063494, 0.200484827,
          0.177601099, 0.0440008566, 0., 0.0709284842, 0.0946150348,
          0.0455972888, 0.0548342653, 0.161978245, 0.194702923,
          0.0971250534, 0.124696381, 0.223391756, 0.187406674,
          0.138980091, 0.054793831, 0.0715827569, 0.148905411,
          0.137774929, 0.0782388374, 0.0719647855, 0.117309518,
          0.154469341, 0.0260819383, 0.139180854, 0.130311936,
          0.178523675, 0.146769792, 0.150930181, 0.108877942,
          0.00927598681, 0., 0., 0.0731048882, 0.0573955588, 0.173926905,
          0.315209001, 0.220189303, 0.061194554, 0., 0.0752253309,
          0.00548171438, 0., 0.115266301, 0.249919787, 0.116512626,
          0.0582617298, 0.0312274415, 0.0426998436, 0.0629037991,
          0.00879453495, 0.0993179828, 0.181647629, 0.197565049,
          0.0858795866, 0.08669094, 0.102291778, 0.0866022557,
          0.103518516, 0.0565118007, 0.114336237 ]
      - [ 0.230087087, 0.1297618, 0.0968554094, 0.16188997, 0.147525936,
          0.131239504, 0.0573247634, 0.0899979249, 0.0823742673,
          0.00309298025, 0.0941266268, 0.102621831, 0.102122188,
          0.107975744, 0.0910019204, 0.139857024, 0.179756626,
          0.166713879, 0.106703036, 0.0809481815, 0.0455796979,
          0.1105441, 0.0754749179, 0.0653033182, 0.126285672,
          0.148756981, 0.0468507372, 0.007475561, 0.147786945,
          0.157394111, 0.189586878, 0.16499868, 0.168435216,
          0.0817404911, 0.0806294158, 0.0895786211, 0.110144362,
          0.0981936753, 0.0848621354, 0.19984293, 0.2551952,
          0.0904548615, 0.0834086463, 0.104002006, 0.0946950763,
          0.072834447, 0.00309298025, 0.120500669, 0.23649615,
          0.00618596049, 0.00698426133, 0.0330023728, 0.0681738481,
          0.0911046639, 0.105882347, 0.167573258, 0.314795554,
          0.116193585, 0.130080447, 0.0729316324, 0.0336184241,
          0.0815996453, 0.10287068, 0.121677198 ]
      - [ 0.296023637, 0.144563735, 0.145403311, 0.0879900828,
          0.191762969, 0.0526943542, 0.082670249, 0.0847741663,
          0.073647067, 0.0656435341, 0.0642472804, 0.116643302,
          0.0485749692, 0.106866844, 0.181797341, 0.148065805,
          0.260293156, 0.18586728, 0.0708915815, 0.00497136591,
          0.0665964335, 0.047934074, 0.0451030843, 0.0565721355,
          0.119849958, 0.0579363964, 0.147876948, 0.0887826085,
          0.148107126, 0.161184326, 0.157090351, 0.151448131, 0.13186644,
          0.036212191, 0.0849933177, 0.0752243325, 0.0865403786, 0.,
          0.123479307, 0.254362285, 0.223953933, 0.177122027,
          0.0999186113, 0.0391945802, 0.0887317061, 0.00971770938,
          0.0544299856, 0.0792420805, 0.125606075, 0.00664910488,
          0.0394773707, 0.0626102909, 0.00684780441, 0.0218668599,
          0.0307507645, 0.206870809, 0.280863911, 0.150767595,
          0.166808173, 0.0091746645, 0.0307109226, 0.0977241322,
          0.120481081, 0.0332065299 ]
      - [ 0.126095027, 0.174859017, 0.142997727, 0.116693504,
          0.0638698041, 0.116283752, 0.00474552112, 0.00501777744,
          0.0807232484, 0.00671118032, 0.0587956943, 0.116913922,
          0.137104794, 0.0703207105, 0.0803823471, 0.107755303,
          0.206088662, 0.115284301, 0.0879698172, 0.0801912993,
          0.0185745209, 0.130197972, 0.00750332745, 0.102432922,
          0.0771002918, 0.0543317795, 0.0759457797, 0.0940879881,
          0.0135615142, 0.228594914, 0.108484216, 0.135717347,
          0.159824684, 0.149279222, 0.0839290246, 0.0531676933,
          0.107585914, 0.0708954707, 0.129196748, 0.269328594,
          0.180838645, 0.151163906, 0.0803640559, 0.121965706,
          0.073669076, 0.0850677118, 0.109144643, 0.164887562,
          0.136126563, 0.138310492, 0., 0.0465998165, 0.0503753275,
          0.146055594, 0.203806192, 0.201572075, 0.197203144,
          0.226882413, 0.118864827, 0.0736022368, 0.10658703, 0.17744498,
          0.153229609, 0.134523615 ]
      - [ 0.254778922, 0.112810493, 0.0779284239, 0.0350631587,
          0.138938487, 0.0721436888, 0.0765152201, 0.118803084,
          0.146890819, 0.0333010033, 0.00675110379, 0.0621737167,
          0.0822380036, 0.0436004102, 0.155855089, 0.209262013,
          0.260614246, 0.118149228, 0.0708277002, 0.0438997932,
          0.0133991856, 0.0511947051, 0.086615108, 0.128867105,
          0.212524906, 0.004114246, 0., 0., 0.145229742, 0.0930186659,
          0.197881326, 0.12260893, 0.150874272, 0.115170352,
          0.0491422862, 0.0472174585, 0.0897469074, 0.0581580848,
          0.137590855, 0.230648845, 0.207090586, 0.152897418, 0.1054748,
          0.121016838, 0.0634566694, 0., 0.0732311979, 0.0718069822,
          0.147371545, 0.0470429808, 0.0482643731, 0.0501171052,
          0.0672932863, 0.121416144, 0.14785327, 0.180757999,
          0.183954492, 0.196841985, 0.199654415, 0.0660786778,
          0.0998777747, 0.146304265, 0.10478285, 0.172682777 ]
      - [ 0.226758912, 0.154713616, 0.0776371509, 0.0925508887,
          0.0868633315, 0.0816060975, 0.146671042, 0.159354702,
          0.201803327, 0.0722145513, 0.0728341565, 0.0360275246,
          0.00753897615, 0.0803317279, 0.198408619, 0.174508214,
          0.202750266, 0.113513999, 0.0269260462, 0.00896540377,
          0.018771898, 0., 0.0946874917, 0.131201014, 0.250241756,
          0.0389607251, 0., 0.0452965498, 0.152854815, 0.103459679,
          0.191087097, 0.18133454, 0.144669458, 0.0625552535,
          0.102319248, 0.0652323142, 0.0981890634, 0.0769593865,
          0.0952787846, 0.132138163, 0.167641088, 0.107265428,
          0.0888487101, 0.0707962066, 0.100841865, 0.109862201,
          0.107063994, 0.101090565, 0.160399988, 0.128520966,
          0.0678167939, 0.0685486868, 0.00583966589, 0.074298434,
          0.13619177, 0.105326019, 0.195530698, 0.102296561, 0.179358974,
          0.081091024, 0.17059882, 0.156922191, 0.139150426, 0.209052503 ]
      - [ 0.206870779, 0.124068156, 0.0715026706, 0.178867117,
          0.144036531, 0.0549166836, 0.0718591586, 0.00615511183,
          0.111808874, 0.047021918, 0.100660063, 0.130501837,
          0.126375243, 0.0597577281, 0.164652571, 0.116508864,
          0.204794064, 0.111625224, 0.119015031, 0.0536803342,
          0.0708485544, 0.0466713831, 0.0101504643, 0.0782154575,
          0.0679150969, 0.0531561971, 0.080876343, 0.0792626366,
          0.067324467, 0.167664185, 0.149522901, 0.12060599, 0.124874756,
          0.0990102217, 0.0924819931, 0.140127629, 0.169183731,
          0.0823427513, 0.0855365917, 0.105887108, 0.277495235,
          0.0424869061, 0.108152017, 0.147027984, 0.199662402,
          0.12922211, 0.0723139495, 0.0967396274, 0.214402512,
          0.110148504, 0.0420779027, 0.0454312302, 0.0772191361, 0.,
          0.0972438231, 0.116099685, 0.31201303, 0.164999709,
          0.228832766, 0.0748567954, 0.0749919936, 0.0434938073,
          0.108226851, 0.12476588 ]
      - [ 0.230111033, 0.136150956, 0.101193547, 0.123147391,
          0.115282655, 0.00883256644, 0.112156518, 0.0997864008,
          0.125081003, 0.136554003, 0.00581916561, 0.096281372,
          0.0760058612, 0.115133964, 0.131759852, 0.114477664,
          0.200737059, 0.144875288, 0.0558183417, 0.0634246171,
          0.0688433275, 0.0340420045, 0.0906990469, 0.00621364685,
          0.0787009299, 0.108820908, 0.0460271873, 0.00489331549,
          0.0135495588, 0.155989572, 0.167735279, 0.12126366, 0.21465221,
          0.147166938, 0.101239957, 0.0882463902, 0.0924781933, 0.,
          0.099640958, 0.230405912, 0.297950476, 0.0854872838,
          0.0933609083, 0.0388252921, 0.079287082, 0.0959224254,
          0.135150179, 0.121496819, 0.165149406, 0.0757977068,
          0.117673784, 0.0816080868, 0.0253950562, 0.0590746365,
          0.0923546553, 0.128072813, 0.309715599, 0.148056388,
          0.192898542, 0.0539007671, 0.103571348, 0.0944984853,
          0.129681811, 0.121656843 ]
      - [ 0.168044239, 0.132802889, 0.152601376, 0.12150757, 0.103983343,
          0.0796879157, 0.0811816901, 0.0960896462, 0.108900093,
          0.125222325, 0.0651825666, 0., 0.00937769096, 0.0661079586,
          0.129570559, 0.189075604, 0.189871132, 0.124718376,
          0.124060795, 0., 0.0173117723, 0., 0.00851749349, 0.0432035662,
          0.0831470191, 0.0501344912, 0.080906719, 0.00833807699,
          0.104180023, 0.156507, 0.192706749, 0.109158784, 0.203946605,
          0.170932382, 0.110373661, 0.136965632, 0.140366629,
          0.108217403, 0.0361030437, 0.243393227, 0.28328678,
          0.114578538, 0.0720291808, 0.0654444769, 0.103886828, 0.,
          0.138387889, 0.066542618, 0.122989535, 0.0843711495,
          0.037413206, 0., 0.0483534671, 0.0883551985, 0.0984138399,
          0.0869139656, 0.318563312, 0.173223391, 0.180576235,
          0.12002667, 0.142638281, 0.0998155698, 0.119746961,
          0.139679983 ]
      - [ 0.265693843, 0.0844853073, 0.101127066, 0.126996696,
          0.111356474, 0., 0., 0.0399152711, 0.153139159, 0.110299833,
          0.105159327, 0., 0.0763159692, 0.0686060041, 0.102761395,
          0.172821328, 0.106707282, 0.117208108, 0.12193241,
          0.0608447827, 0.0164648443, 0.00725282729, 0.00571168168,
          0.0855529383, 0.0681974664, 0.0805853903, 0.0650940761,
          0.111083694, 0.146773651, 0.170043617, 0.148444876,
          0.168026298, 0.177048013, 0.085996449, 0.082306549, 0.10000886,
          0.117745511, 0.074225761, 0.0541033112, 0.18920359,
          0.318083107, 0.0422968641, 0.10102471, 0.0744789913,
          0.123630427, 0.146584973, 0.127265334, 0.12937583, 0.204420403,
          0., 0.0589749403, 0., 0.0657000318, 0., 0.109930709,
          0.0964902118, 0.267011851, 0.197279915, 0.216563538,
          0.138099581, 0.0821957365, 0.0928788036, 0.149157107,
          0.132793024 ]
      - [ 0.253099591, 0.00992900785, 0.0770390779, 0.181520551,
          0.187280849, 0.00817724038, 0.00650312006, 0.0288214516,
          0.0528532937, 0.0526312925, 0., 0.136590794, 0.173875734,
          0.0815639719, 0.216780812, 0.114562117, 0.154174238,
          0.14016062, 0.145964399, 0.0104423966, 0.0789833739, 0.,
          0.0149508612, 0.0616869926, 0.0625323877, 0.0769018531,
          0.157918036, 0.11048235, 0.156505063, 0.132777229, 0.179487929,
          0.141874552, 0.108296171, 0.0103876367, 0.0786244869,
          0.0781606957, 0.118400835, 0., 0.00860281941, 0., 0.390038788,
          0.0163903795, 0.00578218233, 0.0788863599, 0.140941218,
          0.114512689, 0.0842933282, 0.0645882934, 0.164601222,
          0.0178654436, 0., 0.0778320432, 0.00864637922, 0.091700457, 0.,
          0.00687621254, 0.275765836, 0.228220984, 0.226935297,
          0.0754365847, 0.0715904832, 0.00578218233, 0.13411355,
          0.1777284 ]
      - [ 0.23902522, 0.0399010517, 0.0392495953, 0.0910125971,
          0.156075269, 0.0531412922, 0.0943729132, 0.0623104163,
          0.164247572, 0.0856954381, 0.115987495, 0.111687385,
          0.0919731781, 0.091534324, 0.157903716, 0.266154826,
          0.163106591, 0.141605049, 0.170048624, 0.159289405,
          0.195831254, 0.0434873737, 0.0563804694, 0.00482240366,
          0.115166456, 0.103462331, 0.142643914, 0.0753469691,
          0.193825707, 0.144704029, 0.0912504345, 0.103565156,
          0.145720989, 0.078997463, 0.0458231494, 0.0522669554,
          0.0535395145, 0.0477027819, 0.0991678238, 0.253499299,
          0.241881087, 0.128572747, 0.0423296168, 0.0883115605,
          0.113935195, 0.0406234078, 0.1102437, 0.0977492705,
          0.114192598, 0.00322493562, 0., 0.0831434354, 0.189756319,
          0.0738783479, 0.0896502659, 0.191179574, 0.112542063,
          0.103541575, 0.186762482, 0.122162662, 0., 0.0796135366,
          0.0751649216, 0.151567906 ]
      - [ 0.295276344, 0.101821922, 0.121535257, 0.130907625, 0.10295523,
          0., 0., 0.104662783, 0.107959375, 0.0656023845, 0.0475282818,
          0.0704920813, 0.137539908, 0.147554904, 0.103780925,
          0.133854926, 0.213365063, 0.183060646, 0.136291251, 0.,
          0.0428358614, 0., 0.0616044812, 0., 0.256780297, 0.,
          0.0658728108, 0.00476869196, 0.159243241, 0.136306748,
          0.13929753, 0.222897887, 0.0993383825, 0.0693973377,
          0.0494692996, 0.0918076634, 0.0704420581, 0.0957926884,
          0.0378846005, 0.0794669837, 0.334526926, 0.0550919659,
          0.0504173301, 0.0998908579, 0.140487418, 0.0938238949,
          0.0698533058, 0.0352576002, 0.1059964, 0.0534619726,
          0.0591713451, 0.0650068596, 0.0743821561, 0.0919979438, 0., 0.,
          0.311694503, 0.14414078, 0.236180201, 0.101470381,
          0.0775764212, 0.128085226, 0.109103128, 0.0782793537 ]
      - [ 0.23129411, 0.132608876, 0.108460665, 0.0365148075,
          0.00908855349, 0., 0.0499466881, 0.104161955, 0.162447885,
          0.0353499167, 0., 0.0465792082, 0.0134274177, 0.0718037859,
          0.180768102, 0.190247029, 0.282241106, 0.159983993,
          0.0890863612, 0.0311505105, 0.0225257874, 0.0899349675,
          0.0617527403, 0.118858904, 0.208151907, 0.0472086109, 0., 0.,
          0.117901593, 0.113820724, 0.197363898, 0.112821274,
          0.118821479, 0.141481683, 0.101006061, 0.0550230257,
          0.0539443865, 0.0833538324, 0.0951932147, 0.192379415,
          0.320453525, 0.0905090123, 0., 0.109554939, 0.0754968897, 0.,
          0.0819201991, 0.120343909, 0.139507279, 0.0488468707,
          0.101280734, 0.0778448209, 0.0544927903, 0.107376382,
          0.0896657109, 0.198862553, 0.251694649, 0.214960739,
          0.0985406861, 0.105683237, 0.0803973302, 0.0998829752,
          0.106554821, 0.148428306 ]
      - [ 0.162971064, 0.144644514, 0.0675978065, 0.0473475195,
          0.0432467535, 0.0882532448, 0.0565354228, 0.0896964222,
          0.0594807826, 0.0444055013, 0.0851824507, 0.0332938321,
          0.0544994064, 0.0989095569, 0.177221492, 0.295129865,
          0.171195105, 0.150288314, 0., 0., 0.022407217, 0., 0.102773443,
          0.241210312, 0.153212667, 0.037925534, 0.0149199096,
          0.00482535921, 0.138103932, 0.178299874, 0.175409019,
          0.301902622, 0.0782333761, 0.0619936399, 0.042866379,
          0.0616690665, 0.0592937693, 0.0624078028, 0.102209255,
          0.338188589, 0.17112048, 0.064721249, 0.0517256558,
          0.0939963385, 0.0731492192, 0.0648369864, 0.0133392941,
          0.0685649365, 0.112052441, 0.0336565822, 0.0564502142,
          0.0642483979, 0.0584549531, 0.0880642161, 0.116745859,
          0.216591433, 0.134862214, 0.187472254, 0.210600331,
          0.140149102, 0.0968887359, 0.11841584, 0.130190924,
          0.0542239361 ]
      - [ 0.246885359, 0.0895413682, 0.160753205, 0.124745078,
          0.115546882, 0.0726641938, 0.083906278, 0.139825672,
          0.151434407, 0.0773740336, 0.102348298, 0.102765985,
          0.119075768, 0.144333333, 0.118165202, 0.113567851,
          0.155309424, 0.115682401, 0.16160509, 0.0520973504,
          0.0843143016, 0.113190494, 0.0043610842, 0.0893732905,
          0.182457954, 0.11978396, 0.143632263, 0.067166023, 0.153973535,
          0.154034376, 0.123369843, 0.154989958, 0.178733557,
          0.104318343, 0.105050154, 0.0530302636, 0.0824617669,
          0.108191989, 0.0983780622, 0.157207459, 0.243280873,
          0.135317728, 0.133578211, 0.10847915, 0.053055767, 0.107910223,
          0.0467116237, 0.111156553, 0.247753352, 0., 0., 0.0565407537,
          0.0078491699, 0.0727789924, 0.0869538262, 0.143471614,
          0.235579342, 0.15080297, 0.165383056, 0.0125805447,
          0.00635181181, 0.0782455876, 0.127740785, 0.0828800127 ]
      - [ 0.247674525, 0.121904247, 0.108210087, 0.204715639,
          0.0845656097, 0.0970437452, 0., 0.169033661, 0.103943586,
          0.138883412, 0., 0.0479878038, 0.106722489, 0.112821981,
          0.108139597, 0.171053752, 0.2069875, 0.0842124149, 0.121026069,
          0.139903426, 0.0795383155, 0.111479819, 0.00471559586,
          0.0943729356, 0.162484452, 0.162081316, 0.0955070481,
          0.0996564627, 0.133332282, 0.146447361, 0.173625633,
          0.219763339, 0.165575385, 0.047323063, 0.0987013951,
          0.105761483, 0., 0.0964286253, 0.110520966, 0.25773716,
          0.186793312, 0.0823946446, 0.0556140319, 0.0950955227,
          0.0809917375, 0.051054325, 0.0994140208, 0., 0.131121352,
          0.135067716, 0.072849445, 0., 0., 0.0570647754, 0.108904324,
          0.167643979, 0.226638019, 0.164166018, 0.132022083,
          0.104947202, 0.0792378858, 0.0989106148, 0.0395082459,
          0.0812679157 ]
      - [ 0.300399721, 0.178961262, 0.149598494, 0.00812449772,
          0.147192448, 0.105779007, 0.0701441765, 0.0577226691,
          0.0151527999, 0.125410303, 0.118949741, 0.0482015014,
          0.113197565, 0.00966171082, 0.148777097, 0.157122716,
          0.305063486, 0.112795062, 0.159812272, 0.143050924,
          0.0854868218, 0.068540588, 0.0996341035, 0.00574488752,
          0.212157741, 0., 0.0416819975, 0.0871759802, 0.171776935,
          0.10163635, 0.234999299, 0.0694784746, 0.0129223512, 0.,
          0.0869029611, 0.100793667, 0.0956501141, 0.0979313701,
          0.135222152, 0.275597721, 0.201277912, 0.061768394,
          0.0820518509, 0.00729499292, 0.111178882, 0., 0., 0.,
          0.125347391, 0., 0.0384797007, 0., 0.00574488752, 0.0564711727,
          0.135788888, 0.191584975, 0.267910808, 0.175853536,
          0.0514539853, 0.0605015717, 0., 0., 0.088046737, 0.0858924463 ]
      - [ 0.308535874, 0.138601452, 0.152555257, 0.0899152532,
          0.0109937135, 0.0919560567, 0.0281247851, 0.0721343979,
          0.072676003, 0.0400736481, 0.0697009116, 0.00516539859,
          0.0100622354, 0.0540169738, 0.171263948, 0.155328795,
          0.209838331, 0.0143352319, 0., 0.00772407278, 0.0996349752,
          0.0357698388, 0.100343429, 0.0925459489, 0.0672490671,
          0.0922727361, 0.191740006, 0.10248027, 0.105501451,
          0.158947259, 0.228780329, 0.230954885, 0.101384044,
          0.0114566516, 0.0949930921, 0.0668157116, 0.0784366578,
          0.0587008335, 0.0435567312, 0.225337908, 0.308209389,
          0.184515208, 0.00780018093, 0.0674865618, 0.0399702154,
          0.0727588981, 0.0453005098, 0., 0.148268834, 0.10528826,
          0.0894469619, 0.0537165925, 0., 0., 0.0390905961, 0.12604697,
          0.293873101, 0.23683235, 0.1631791, 0., 0.0757867619,
          0.121629968, 0.0508538447, 0.112064287 ]
      - [ 0.230258748, 0.123663962, 0.112645894, 0.134537384,
          0.118713878, 0.0286494829, 0.044045452, 0.108288042,
          0.126898721, 0.0123086255, 0.0555409044, 0.102191597,
          0.0624388382, 0.105098449, 0.124909401, 0.199191198,
          0.174127653, 0.141961068, 0.103594795, 0.0116088502,
          0.0297942329, 0.122815676, 0.0131760277, 0., 0.138282299,
          0.129425973, 0.110808589, 0.00644213613, 0.15689756,
          0.113256395, 0.155789271, 0.193712443, 0.131731167,
          0.117058672, 0.0963648483, 0.0547823869, 0.0850150287, 0.,
          0.103871994, 0.327965707, 0.218195811, 0.0109622749,
          0.0597724915, 0.103171118, 0.071742259, 0.113069572,
          0.095358789, 0.12769936, 0.129112467, 0.10292723, 0.0519369766,
          0.085045509, 0.0934659243, 0.0316709951, 0.0697663352,
          0.211883813, 0.215241551, 0.169584751, 0.178505927,
          0.116412424, 0.0793722868, 0.111637458, 0.169255063,
          0.0926569402 ]
      - [ 0.275067955, 0.148763701, 0.109881364, 0.054391101, 0.11215093,
          0., 0.0727944076, 0.0857720822, 0.0845745504, 0.101373591, 0.,
          0.0711105689, 0.0813269988, 0.00685339794, 0.0839610696,
          0.231836602, 0.204947248, 0.105021641, 0.135849699, 0.,
          0.00897503644, 0.0438232385, 0.0673479661, 0.0899005085,
          0.112456888, 0.124569744, 0.0883397833, 0.0432428271,
          0.00859088637, 0.123342596, 0.222147644, 0.190225571,
          0.110146865, 0.0547376052, 0.0932715461, 0.0362892374,
          0.118868589, 0.0501450337, 0.0341233984, 0.310701877,
          0.2606408, 0.00754707586, 0.00848806556, 0., 0.0799282342,
          0.105413817, 0.0797681212, 0.100737631, 0.118259184,
          0.0805814639, 0., 0., 0., 0., 0.0850517079, 0.248844713,
          0.272531182, 0.16940321, 0.17229715, 0.11308483, 0.0922522768,
          0.0770951733, 0.101881243, 0.213891417 ]
      - [ 0.202702448, 0.119973265, 0.130926192, 0.1952153, 0.12333753,
          0.0992507339, 0.00893903617, 0.0486259982, 0.0186912697,
          0.0992639586, 0.106891707, 0.119145073, 0.0993914977,
          0.0693515092, 0.0937503576, 0.158717558, 0.255750299,
          0.032688953, 0.00648955768, 0.0976608023, 0.015365405,
          0.102769554, 0.0779300407, 0.12137311, 0.245365307,
          0.104155183, 0.0774156675, 0.102207214, 0.155604616,
          0.157933921, 0.0918371975, 0.215870112, 0.164795578,
          0.0716016069, 0.0837634802, 0.0895335227, 0., 0.0973579064,
          0.0147648947, 0.300112605, 0.242157981, 0.0644890964, 0., 0.,
          0.0355491079, 0.100370832, 0.103757732, 0.163112104,
          0.201366082, 0.0733256787, 0., 0., 0.0548337325, 0.058743801,
          0.0137741491, 0.109438933, 0.301142037, 0.080479607,
          0.104738057, 0.110676713, 0.0438532755, 0.0291965529,
          0.0136196371, 0.17732434 ]
      - [ 0.167494729, 0.12103565, 0.149892002, 0.171899974, 0.16706951,
          0.0492209271, 0.115793817, 0.0394801125, 0.103471085,
          0.0817125738, 0.104760237, 0.101881579, 0.163549334,
          0.156040832, 0.136435881, 0.0738733187, 0.178859621,
          0.115990914, 0.123484984, 0.137578174, 0.136562794, 0.,
          0.117088214, 0.106810637, 0.130285919, 0.129358515,
          0.0865740776, 0.142123953, 0.122549795, 0.179174572,
          0.134085327, 0.13243942, 0.101094186, 0.118423924, 0.120248593,
